{"version": "0.5.2", "metadata": {"date": {"year": 2024, "month": 3, "day": 7, "hour": 15, "minute": 7, "second": 22}, "loudness": -17.948076248168945, "gain": 0.08758973335587317, "name": null, "modeled_by": null, "gear_type": null, "gear_make": null, "gear_model": null, "tone_type": null}, "architecture": "WaveNet", "config": {"layers": [{"input_size": 1, "condition_size": 1, "head_size": 8, "channels": 16, "kernel_size": 3, "dilations": [1, 2, 4, 8, 16, 32, 64, 128, 256, 512], "activation": "Tanh", "gated": false, "head_bias": false}, {"input_size": 16, "condition_size": 1, "head_size": 1, "channels": 8, "kernel_size": 3, "dilations": [1, 2, 4, 8, 16, 32, 64, 128, 256, 512], "activation": "Tanh", "gated": false, "head_bias": true}], "head": null, "head_scale": 0.02}, "weights": [0.004643422085791826, 0.40696412324905396, -0.5951681137084961, -0.7262041568756104, -0.13059094548225403, 0.21053053438663483, 0.0003576808958314359, 0.8123686909675598, -0.04887722432613373, 0.12744075059890747, -0.3289302885532379, -0.08251015096902847, -0.9237983822822571, -0.6176778078079224, -0.25670626759529114, -0.002660776022821665, -0.02725468948483467, -0.0163663849234581, -0.24401693046092987, -0.07729852944612503, -0.08308453112840652, 0.16205374896526337, -0.015977514907717705, 0.24330931901931763, -0.06612173467874527, 0.03007170744240284, 0.27144673466682434, -0.17742852866649628, -0.061712201684713364, 0.09737240523099899, -0.07946395128965378, 0.11771416664123535, -0.22411295771598816, -0.019602322950959206, -0.025395004078745842, -0.0400867834687233, -0.05015893653035164, 0.10904843360185623, -0.07754936069250107, 0.11329853534698486, -0.0030415584333240986, 0.02933952957391739, -0.03745734319090843, -0.12663373351097107, -0.20856977999210358, -0.011471950449049473, 0.09514553844928741, 0.21699737012386322, -0.11822474002838135, 0.01675335504114628, 0.21759122610092163, 0.11225902289152145, 0.07412547618150711, 0.16217824816703796, 0.05532612279057503, -0.07039996981620789, 0.16680562496185303, -0.15539124608039856, -0.08719117939472198, 0.057656437158584595, 0.024809785187244415, 0.007129047531634569, -0.10773427039384842, -0.008229258470237255, -0.03615245968103409, -0.1311400681734085, -0.16011545062065125, 0.12953411042690277, 0.01418137364089489, 0.18643780052661896, -0.20693142712116241, 0.02365860901772976, 0.009516392834484577, 0.015894867479801178, 0.20510733127593994, 0.07680603116750717, -0.029932979494333267, -0.04375390335917473, -0.009347525425255299, 0.012291911989450455, -0.20274515450000763, 0.18376781046390533, 0.16204752027988434, -0.04550459235906601, 0.0854913517832756, 0.0802106037735939, -0.10414760559797287, -0.015420746989548206, -0.03204541280865669, -0.02495385706424713, 0.0016958690248429775, 0.15894033014774323, 0.034908466041088104, 0.09854917228221893, -0.24945391714572906, -0.013688535429537296, 0.01980472169816494, -0.0508863627910614, -0.054947949945926666, -0.12999264895915985, 0.032904624938964844, 0.17729362845420837, -0.11266383528709412, -0.13796164095401764, -0.0575810931622982, -0.051819466054439545, -0.19927993416786194, -0.039603203535079956, -0.05569257587194443, -0.06689805537462234, -0.11888374388217926, 0.02786950208246708, -0.1545678675174713, 0.07020025700330734, 0.08611845970153809, -0.1016915962100029, 0.06482364237308502, -0.14100776612758636, -0.0018555226270109415, -0.06998563557863235, 0.20114834606647491, -0.014670123346149921, -0.17797812819480896, 0.21725058555603027, -0.15893934667110443, -0.17550452053546906, 0.09708167612552643, -0.0610804408788681, 0.04112112149596214, -0.2753946781158447, -0.009118455462157726, 0.04183086380362511, 0.016841799020767212, 0.015505693852901459, 0.2111280858516693, -0.16480155289173126, 0.04399998486042023, -0.04859932139515877, 0.2282588928937912, 0.0870165079832077, 0.20684167742729187, -0.07380063086748123, 0.1309790015220642, -0.10252036154270172, 0.03766815736889839, -0.10417436808347702, -0.00585380382835865, 0.11772216111421585, -0.09710031747817993, -0.22008897364139557, 0.011647666804492474, -0.14270290732383728, -0.1339339166879654, 0.22992654144763947, 0.06853199750185013, -0.22806161642074585, 0.2442053109407425, -0.11153871566057205, -0.049482233822345734, -0.01979156583547592, 0.04393192008137703, -0.0019970720168203115, -0.16549061238765717, -0.051594872027635574, -0.0690290704369545, 0.059732887893915176, -0.13362400233745575, 0.10632337629795074, -0.18287049233913422, -0.0833151638507843, 0.18006567656993866, -0.11508165299892426, 0.058596350252628326, 0.07823120802640915, -0.19463463127613068, 0.15577639639377594, -0.07308837026357651, -0.014601657167077065, 0.08552984893321991, -0.11347422748804092, -0.03632985055446625, 0.04345703125, 0.048816751688718796, 0.09603710472583771, -0.01603667438030243, 0.07107366621494293, -0.11312296241521835, 0.04563248157501221, -0.1492171734571457, 0.1456623077392578, 0.03300584852695465, 0.1463533490896225, -0.16579212248325348, -0.06865976750850677, -0.08007588237524033, -0.14857183396816254, -0.1571359634399414, 0.10284332185983658, -0.14144682884216309, -0.0778692364692688, 0.05699591338634491, 0.035403598099946976, -0.17673638463020325, -0.05209606513381004, -0.13938243687152863, 0.10728128999471664, -0.04903825744986534, 0.10953832417726517, -0.022572895511984825, -0.05545424297451973, -0.10464120656251907, -0.05827804654836655, -0.046944670379161835, 0.0324929915368557, 0.030639462172985077, 0.08590885996818542, -0.17616009712219238, -0.04495203122496605, 0.18593265116214752, -0.18321846425533295, 0.0221853069961071, 0.20097781717777252, -0.0072859362699091434, -0.028049776330590248, -0.19438239932060242, 0.13151951134204865, 0.08878280222415924, 0.15273833274841309, 0.08945279568433762, -0.05165868625044823, -0.06800592690706253, 0.1856040358543396, 0.023710088804364204, 0.1666412502527237, 0.0063048722222447395, -0.10430404543876648, 0.0213778056204319, -0.022757338359951973, -0.03973491117358208, 0.10445626080036163, -0.026640404015779495, 0.1423073559999466, 0.012292052619159222, -0.057448308914899826, 0.10604289919137955, -0.06930515170097351, 0.03927742689847946, -0.08954408019781113, 0.07006876915693283, -0.09114760160446167, -0.05021112039685249, 0.07907804846763611, 0.052805643528699875, -0.05654045194387436, -0.09892930090427399, -0.08731876313686371, -0.22292740643024445, -0.012917530722916126, -0.09859130531549454, -0.08805179595947266, -0.0015975366113707423, -0.02315264195203781, 0.06551854312419891, 0.026045309379696846, 0.15561991930007935, -0.05748198553919792, -0.1272534281015396, 0.15172360837459564, 0.10079342871904373, -0.03937102109193802, 0.017526578158140182, -0.07011860609054565, -0.06459783762693405, -0.08458799123764038, -0.005773678421974182, -0.06694014370441437, 0.2647283673286438, -0.08512977510690689, 0.0705409124493599, -0.06887432187795639, 0.040594715625047684, -0.1270814687013626, 0.02645193785429001, 0.10853467136621475, 0.08350615948438644, 0.004310442600399256, -0.04317020624876022, -0.03163198009133339, 0.0914660319685936, -0.028812212869524956, -0.17013558745384216, 0.13084746897220612, 0.03476335480809212, -0.09135062992572784, 0.07484430819749832, -0.096670962870121, 0.015079346485435963, 0.002678533783182502, 0.05716218054294586, -0.1213078424334526, 0.03935082629323006, -0.05262673646211624, -0.16742314398288727, -0.021126912906765938, -0.0662531927227974, -0.20602665841579437, -0.029988089576363564, 0.07198631018400192, 0.12031681835651398, -0.17476877570152283, -0.13143181800842285, -0.0885358527302742, 0.2039792239665985, -0.06535402685403824, -0.013458671979606152, 0.2555428147315979, -0.09418347477912903, -0.06089944764971733, 0.1937849521636963, 0.011279923841357231, 0.06598564237356186, -0.14807255566120148, -0.08925687521696091, 0.033190175890922546, 0.2102586328983307, 0.14217962324619293, 0.15305310487747192, -0.14128823578357697, 0.10425497591495514, -0.08241910487413406, 0.07422753423452377, -0.13394184410572052, 0.18194153904914856, -0.07811081409454346, -0.09779534488916397, 0.0013946911785751581, 0.2841692268848419, 0.11692938953638077, 0.05620410293340683, 0.23759597539901733, -0.04752541705965996, -0.12055934220552444, 0.27598607540130615, 0.06990626454353333, -0.15301986038684845, 0.290190190076828, 0.06625598669052124, 0.023484105244278908, 0.06866432726383209, 0.007622376549988985, -0.10484674572944641, 0.10210879147052765, -0.21338458359241486, -0.12606582045555115, -0.126311793923378, 0.13432130217552185, 0.038148652762174606, 0.03525450453162193, -0.17615635693073273, -0.057210829108953476, -0.06486448645591736, -0.21994584798812866, -0.20844867825508118, 0.14887107908725739, 0.00915443990379572, 0.05417691543698311, 0.1421409547328949, -0.056205157190561295, -0.011033665388822556, -0.058397937566041946, -0.16428142786026, 0.034658048301935196, -0.13238902390003204, 0.007407233119010925, -0.046523552387952805, -0.11728045344352722, 0.0871325358748436, 0.07259468734264374, 0.17181183397769928, 0.16480252146720886, 0.19420687854290009, -0.0859391838312149, -0.001410702127031982, 0.048397697508335114, 0.09667777270078659, 0.0740329846739769, -0.007236405275762081, 0.11468181014060974, -0.12969572842121124, -0.024827077984809875, 0.04979950562119484, -0.10994797945022583, -0.17167235910892487, -0.0445178747177124, -0.17828550934791565, 0.015054580755531788, 0.1395442634820938, -0.11231140792369843, -0.1871294528245926, 0.044442322105169296, -0.013741911388933659, -0.05949568748474121, -0.06855949759483337, 0.17303121089935303, 0.17493218183517456, -0.235672727227211, 0.09414159506559372, -0.010405244305729866, 0.0700158178806305, 0.03681236878037453, -0.2055591344833374, 0.10467297583818436, 0.08208877593278885, -0.0975879654288292, 0.009763666428625584, -0.01929088495671749, 0.06745936721563339, -0.1637294739484787, -0.031464833766222, 0.0823863074183464, 0.05368297919631004, -0.04510927200317383, 0.1313898265361786, -0.05897631123661995, 0.09248281270265579, -0.18209333717823029, 0.15251874923706055, -0.09038009494543076, 0.024348733946681023, -0.0909060463309288, -0.1297115534543991, -0.054941337555646896, 0.26781609654426575, -0.03927644342184067, -0.2066735327243805, 0.053221721202135086, -0.014818673022091389, -0.23548153042793274, 0.19678503274917603, -0.17284244298934937, -0.25931820273399353, -0.01110744010657072, -0.05825585871934891, -0.006052442826330662, -0.0031489499378949404, 0.1534269005060196, -0.03745928406715393, 0.12814080715179443, 0.05695653334259987, -0.07309097796678543, 0.24025869369506836, 0.07473888248205185, 0.26328253746032715, -0.05223509669303894, -0.0941227525472641, -0.002037573838606477, 0.1305791586637497, 0.07194013893604279, -0.24248667061328888, 0.0877022072672844, -0.1562693566083908, -0.17144472897052765, 0.12974481284618378, -0.1240025982260704, 0.1600896120071411, -0.053014516830444336, 0.06679119169712067, -0.06723092496395111, 0.015158073045313358, -0.048453714698553085, 0.1909652054309845, 0.01242850162088871, 0.12587639689445496, -0.0842282846570015, 0.20815078914165497, -0.1598932296037674, -0.030457351356744766, -0.06851989775896072, -0.06420108675956726, -0.046443160623311996, 0.04148765653371811, -0.0794932022690773, -0.22587504982948303, 0.18226398527622223, -0.013091832399368286, -0.017323462292551994, 0.21650032699108124, 0.08437687158584595, -0.1201087161898613, 0.08510246872901917, -0.025989143177866936, -0.094105564057827, 0.19536346197128296, -0.03690047189593315, 0.15396815538406372, 0.0657736137509346, -0.127380833029747, -0.16841083765029907, 0.0175881776958704, 0.13541492819786072, -0.057851940393447876, 0.08025788515806198, 0.06653445959091187, 0.006808626465499401, 0.14078231155872345, -0.08141861855983734, -0.033280130475759506, 0.08059535920619965, -0.054051484912633896, -0.028417786583304405, -0.029283389449119568, 0.09376565366983414, 0.03771725296974182, -0.07176665961742401, 0.14342446625232697, 0.12467668205499649, 0.04415613412857056, 0.0158552136272192, 0.16236290335655212, -0.0364607535302639, 0.06974686682224274, -0.0781199187040329, 0.09607373923063278, -0.11617004871368408, -0.027299555018544197, -0.10759340226650238, 0.14040280878543854, -0.10742153227329254, 0.03176271915435791, -0.08622696250677109, 0.06178734079003334, 0.14667171239852905, -0.11381909251213074, -0.19705969095230103, -0.08909031003713608, -0.0033660545013844967, -0.11438821256160736, -0.07215184718370438, -0.05216959863901138, -0.04439058154821396, -0.05285881832242012, 0.06285988539457321, -0.006328275427222252, -0.02544044516980648, 0.18745389580726624, 0.3026634454727173, 0.15226463973522186, 0.06306616216897964, 0.038267966359853745, 0.020310549065470695, -0.19316641986370087, -0.2302057147026062, 0.26372918486595154, -0.15090496838092804, -0.06920407712459564, 0.10998104512691498, -0.09091196209192276, -0.12051603943109512, 0.19704237580299377, 0.05486186221241951, -0.05547488480806351, -0.21330660581588745, -0.1460278481245041, -0.014148440212011337, -0.08311834931373596, 0.19585099816322327, 0.06536166369915009, -0.14875662326812744, 0.1033487617969513, 0.029322611168026924, 0.2827521860599518, 0.11594822257757187, 0.020100345835089684, -0.2352469265460968, -0.057135652750730515, 0.034392911940813065, 0.0881073996424675, -0.19617265462875366, -0.029977016150951385, 0.24443809688091278, -0.10272691398859024, -0.21836166083812714, -0.010637217201292515, -0.0219148937612772, -0.10602997243404388, 0.05055861547589302, -0.01792839728295803, -0.02726154588162899, 0.24181029200553894, 0.1913948953151703, 0.05075325444340706, 0.005586016457527876, -0.12971416115760803, 0.11614982783794403, 0.046225953847169876, 0.08829516172409058, -0.13912813365459442, 0.06360267102718353, 0.10859771817922592, 0.14148738980293274, -0.055402614176273346, -0.08061110228300095, -0.0844246968626976, 0.20792101323604584, -0.09376238286495209, -0.06301920861005783, 0.13491220772266388, -0.037853825837373734, -0.08176327496767044, -0.07783983647823334, -0.04598411172628403, -0.1469418853521347, 0.12839044630527496, -0.03831009939312935, 0.03531062602996826, 0.053382471203804016, 0.03850468248128891, 0.02104303427040577, 0.17332251369953156, 0.03986846283078194, -0.08349089324474335, 0.06507203727960587, 0.00986637081950903, -0.12385249882936478, 0.031085887923836708, -0.13299670815467834, 0.12708480656147003, 0.03212488815188408, -0.15768742561340332, 0.005772505886852741, 0.16185873746871948, 0.01112365908920765, 0.060019150376319885, 0.08391080796718597, 0.02562613971531391, -0.025602396577596664, 0.005689097102731466, -0.18903127312660217, -0.16149890422821045, 0.0025159288197755814, 0.09668193012475967, 0.1626446545124054, 0.12972392141819, -0.013200893066823483, -0.10793513059616089, 0.2605630159378052, -0.05602826178073883, 0.13772955536842346, -0.23307548463344574, -0.006688786204904318, 0.09752088040113449, -0.18226322531700134, 0.14056751132011414, -0.08960989117622375, -0.23365843296051025, -0.07998356223106384, 0.01675446890294552, 0.263058066368103, -0.03443564474582672, 0.06936505436897278, -0.08151508122682571, -0.059064362198114395, 0.0872906967997551, 0.012314995750784874, -0.012386473827064037, 0.09882950037717819, -0.18492889404296875, 0.10267636924982071, -0.04398982971906662, 0.24629350006580353, -0.12529167532920837, -0.015345800668001175, -0.16381792724132538, 0.07033717632293701, 0.06994829326868057, 0.0018300226656720042, 0.007839621976017952, 0.014623970724642277, -0.022894155234098434, -0.013460407964885235, 0.14309118688106537, -0.221096470952034, -0.002744735684245825, -0.003321232507005334, -0.06403697282075882, 0.10908909142017365, -0.03122670389711857, -0.17703650891780853, -0.0060983081348240376, -0.039560895413160324, -0.04263784736394882, 0.033910855650901794, -0.06332066655158997, 0.12755176424980164, -0.11254367977380753, 0.019581671804189682, 0.10773392021656036, -0.2376294732093811, 0.19521190226078033, 0.026911430060863495, -0.16896460950374603, 0.18642452359199524, -0.11023206263780594, 0.15963734686374664, -0.24432124197483063, -0.019398806616663933, -0.10730218887329102, 0.06552168726921082, -0.15090614557266235, 0.22391961514949799, -0.1815807819366455, -0.07418182492256165, -0.23067355155944824, 0.013147715479135513, 0.15201470255851746, 0.08340372890233994, -0.12990815937519073, 0.034828297793865204, -0.034693580120801926, 0.28737932443618774, 0.12084545940160751, -0.20422625541687012, 0.11512027680873871, -0.0638398751616478, -0.2126128077507019, 0.19638845324516296, 0.14189334213733673, -0.2439929097890854, 0.2497144639492035, -0.06744807213544846, -0.14312884211540222, 0.26752904057502747, -0.022828727960586548, 0.05184562876820564, -0.020069336518645287, 0.1918107122182846, 0.03976929932832718, -0.046719636768102646, 0.08540541678667068, -0.1376061886548996, -0.19904659688472748, 0.10642620176076889, 0.15085382759571075, 0.04559269919991493, -0.02823704294860363, 0.16265639662742615, 0.1867581605911255, -0.17343661189079285, 0.017889782786369324, 0.027841955423355103, -0.20391012728214264, -0.034061893820762634, 0.022296534851193428, 0.21796447038650513, 0.10068857669830322, 0.12188061326742172, -0.035815171897411346, 0.07031215727329254, -0.15172545611858368, -0.0020282974001020193, 0.005184904672205448, 0.1179579645395279, -0.27089208364486694, 0.12056051194667816, -0.002910008653998375, 0.015644192695617676, -0.007943806238472462, 0.2029346376657486, -0.2244291603565216, 0.0007599096861667931, 0.1290702372789383, -0.20471523702144623, 0.11950885504484177, 0.16779017448425293, -0.006420353893190622, -0.055940378457307816, 0.23194926977157593, -0.1852995604276657, 0.17164233326911926, -0.061738938093185425, -0.23020602762699127, 0.04783529415726662, -0.005433441139757633, -0.06672638654708862, -0.02980111539363861, -0.07570253312587738, -0.08945830166339874, -0.08687517046928406, 0.051720958203077316, 0.006680941209197044, -0.04410364851355553, -0.07066536694765091, 0.045476824045181274, 0.05161649361252785, -0.1336616724729538, -0.02996785193681717, -0.06672868132591248, 0.021935652941465378, -0.021352117881178856, 0.021981967613101006, 0.4800235331058502, -0.3780934512615204, 0.6595993638038635, -0.6491214036941528, 0.06321005523204803, 0.7983644008636475, 0.8445326685905457, -0.6058533787727356, 0.061703991144895554, -0.0028754312079399824, -0.48338738083839417, -0.4580841362476349, 0.2006341814994812, -0.5800982117652893, 0.15886038541793823, 0.5208982229232788, -0.1121937558054924, 0.12237662822008133, -0.079389289021492, 0.29883527755737305, 0.1199389100074768, -0.06933499872684479, 0.12898969650268555, 0.08329147845506668, -0.10413482040166855, -0.05421886965632439, -0.003260506084188819, 0.10329946130514145, 0.10386151820421219, 0.1255052238702774, 0.3725114166736603, 0.053086668252944946, -0.17744842171669006, -0.16549977660179138, -0.2334340512752533, 0.07187303155660629, -0.08631738275289536, -0.1557030826807022, -0.09230435639619827, -0.04293454810976982, -0.047967784106731415, 0.21353138983249664, -0.01380045898258686, 0.12637479603290558, 0.1445029228925705, 0.04698166996240616, -0.31742510199546814, 0.1388898640871048, -0.10099759697914124, 0.00782411452382803, 0.0879184901714325, 0.22726093232631683, -0.14318633079528809, 0.0048132059164345264, 0.1785786896944046, -0.21719714999198914, 0.04691581055521965, -0.08186358958482742, 0.20916402339935303, -0.15204130113124847, 0.20083338022232056, 0.15440143644809723, -0.18824641406536102, 0.06901034712791443, 0.17828369140625, -0.14267180860042572, 0.020684469491243362, -0.18575870990753174, -0.04756758734583855, 0.17760080099105835, 0.06801848113536835, -0.11345285177230835, -0.20026303827762604, 0.03461850807070732, 0.02407844550907612, -0.1157163605093956, 0.20998042821884155, 0.1621180772781372, -0.2988262176513672, 0.04933571442961693, -0.14161816239356995, -0.193930983543396, -0.1374719887971878, 0.03189791738986969, 0.18632817268371582, 0.12472667545080185, 0.17321789264678955, 0.016587987542152405, 0.13447900116443634, 0.28995585441589355, -0.25364524126052856, 0.3938319981098175, -0.21547068655490875, 0.09866803884506226, 0.09411485493183136, -0.17123515903949738, -0.11127450317144394, -0.02115352638065815, 0.08150999993085861, 0.05072140693664551, 0.21810156106948853, 0.18626780807971954, 0.22755494713783264, 0.033927224576473236, 0.17399702966213226, -0.015723617747426033, -0.22218875586986542, -0.062424078583717346, 0.01225570309907198, -0.0874747484922409, 0.0517386756837368, 0.09889838844537735, 0.2428080290555954, 0.11133617162704468, 0.11844026297330856, 0.28450438380241394, -0.14420871436595917, -0.2631014883518219, 0.06984963268041611, 0.4132683575153351, -0.02449655346572399, -0.31210002303123474, -0.10958577692508698, 0.5154953598976135, 0.1201888918876648, -0.09528110176324844, 0.6705790758132935, -0.23749493062496185, 0.1952361911535263, 0.06546586006879807, 0.273250937461853, -0.17292553186416626, -0.1501888632774353, 0.11268146336078644, 0.24923332035541534, 0.16158419847488403, 0.18549054861068726, -0.16836349666118622, 0.08710420876741409, -0.059259913861751556, 0.004776572808623314, -0.1260160207748413, 0.01716073788702488, 0.00961789209395647, 0.10035892575979233, -0.03215862065553665, -0.23395231366157532, -0.3198916018009186, 0.11252496391534805, -0.012541362084448338, -0.1509699523448944, -0.10670752823352814, -0.21168355643749237, -0.21762606501579285, 0.10722457617521286, -0.05803973600268364, 0.014264246448874474, -0.19066303968429565, 0.21084712445735931, 0.16974280774593353, -0.287029504776001, 0.02390987239778042, 0.15610718727111816, -0.13100720942020416, -0.13326729834079742, -0.11977861821651459, 0.12033066898584366, -0.16617973148822784, 0.018667500466108322, 0.1676074117422104, 0.14535307884216309, 0.16209955513477325, 0.15010175108909607, 0.2717946767807007, -0.35194528102874756, -0.13529275357723236, 0.20283538103103638, 0.2633664309978485, -0.29603490233421326, 0.017095601186156273, -0.0726948231458664, -0.21442827582359314, 0.0016999415820464492, -0.015361807309091091, -0.00866967998445034, -0.21862639486789703, -0.14799758791923523, -0.19431109726428986, -0.13028080761432648, 0.11053775995969772, 0.18212448060512543, 0.18114899098873138, 0.06205788999795914, -0.12099725008010864, 0.15344828367233276, -0.19719070196151733, 0.02193799987435341, -0.04151921346783638, -0.0413692370057106, -0.15437918901443481, 0.0031018948648124933, -0.1937270611524582, -0.12491064518690109, -0.4638444483280182, -0.1264033317565918, 0.07227447628974915, -0.3493233025074005, 0.011587528511881828, -0.09795709699392319, -0.03605014085769653, 0.10908710211515427, -0.03540080413222313, 0.013244914822280407, -0.051479458808898926, 0.02867925725877285, 0.27674400806427, 0.25804129242897034, 0.0009748999145813286, 0.010258781723678112, 0.02811027131974697, 0.12049312144517899, -0.24849407374858856, -0.06606845557689667, -0.041988760232925415, 0.11004384607076645, -0.22381246089935303, -0.09024673700332642, 0.05897798761725426, -0.11891017854213715, 0.29926544427871704, 0.23891746997833252, 0.03994383290410042, 0.0050123012624681, -0.06878494471311569, 0.0827777236700058, -0.07985612004995346, -0.10905029624700546, -0.13790284097194672, -0.09896804392337799, 0.17985211312770844, -0.1429491639137268, 0.17040185630321503, -0.024637866765260696, -0.18437613546848297, -0.0008288694079965353, 0.11087798327207565, 0.20271199941635132, 0.25369569659233093, -0.18830202519893646, 0.16673438251018524, -0.009348426945507526, 0.035165008157491684, -0.01659710705280304, 0.04951561987400055, -0.03363700583577156, -0.14045113325119019, -0.052344270050525665, 0.05403008311986923, 0.0913277119398117, 0.024241140112280846, -0.14548897743225098, 0.12415232509374619, 0.008743108250200748, 0.17116045951843262, -0.16148348152637482, -0.17760886251926422, -0.08063804358243942, -0.1535557061433792, -0.08015597611665726, 0.24438585340976715, -0.1969868391752243, -0.139057919383049, 0.1843947321176529, -0.1421850472688675, 0.26576468348503113, -0.0975060760974884, -0.12086835503578186, -0.14836175739765167, 0.14431898295879364, -0.10539700835943222, 0.15685394406318665, -0.19245977699756622, 0.12893590331077576, -0.0059751286171376705, 0.13361497223377228, 0.22184066474437714, 0.13701392710208893, -0.010408672504127026, -0.03970419242978096, -0.06100388243794441, 0.057866889983415604, 0.15255936980247498, -0.03820252791047096, 0.0018785404972732067, -0.12462892383337021, -0.04925926402211189, 0.13135375082492828, -0.2333376705646515, -0.04680149257183075, 0.04285382479429245, -0.0335727259516716, -0.11929573118686676, 0.09897764772176743, 0.21413880586624146, -0.05102059245109558, -0.038561925292015076, 0.0038246733602136374, -0.1820686012506485, 0.12273775041103363, 0.12616537511348724, -0.01199187058955431, -0.23697060346603394, -0.14898373186588287, 0.049514662474393845, -0.0061993044801056385, -0.04171420633792877, 0.020242765545845032, -0.18606717884540558, -0.22418427467346191, -0.058921635150909424, 0.10302326083183289, -0.20676657557487488, -0.049647506326436996, 0.06766843795776367, -0.22871534526348114, -0.06177208200097084, 0.06793905049562454, -0.16485175490379333, 0.055144719779491425, -0.0004060613864567131, -0.1754438579082489, 0.03136371448636055, 0.1380787044763565, 0.09290643036365509, -0.04104003310203552, -0.1912935972213745, -0.07264231145381927, -0.019779911264777184, 0.19311097264289856, -0.05937601253390312, 0.06066921353340149, 0.07187345623970032, -0.1053297370672226, -0.04286651313304901, 0.1570199877023697, -0.16374580562114716, 0.0952080711722374, 0.015613295137882233, 0.1372336447238922, -0.1496356874704361, 0.07179474830627441, -0.09833323210477829, -0.16689565777778625, -0.14171135425567627, 0.30311882495880127, -0.17245742678642273, 0.02005014568567276, 0.162434920668602, -0.08505749702453613, -0.108814537525177, -0.19886739552021027, 0.0317663848400116, 0.09029239416122437, 0.20992276072502136, 0.015127627179026604, -0.24370209872722626, -0.05128141865134239, 0.07757129520177841, 0.1456793248653412, -0.22934368252754211, 0.04294330254197121, 0.17880435287952423, -0.0823965072631836, -0.06066780164837837, 0.07626044750213623, 0.002282434608787298, 0.09006352722644806, 0.08675101399421692, -0.06851356476545334, -0.16447214782238007, -0.04282722622156143, -0.010403785854578018, 0.23649811744689941, -0.03935220092535019, -0.14366517961025238, -0.2505323588848114, 0.07799377292394638, 0.208141028881073, 0.19936621189117432, -0.1643197238445282, -0.11186938732862473, 0.04617634788155556, 0.15735052525997162, 0.07494799792766571, 0.005597976502031088, 0.024631377309560776, 0.13186754286289215, 0.027199726551771164, 0.06796561926603317, 0.027138909325003624, 0.07518599182367325, -0.013217468746006489, 0.3256572484970093, -0.2778671085834503, -0.031984902918338776, 0.015315447933971882, -0.0672948956489563, 0.0009050312801264226, -0.10600034147500992, -0.14696279168128967, 0.08921210467815399, 0.03970399871468544, 0.18721158802509308, -0.2272227555513382, -0.21712936460971832, -0.1835705190896988, 0.21406565606594086, -0.0177625585347414, -0.05346772074699402, 0.15242907404899597, 0.02859494648873806, 0.024349955841898918, 0.11242188513278961, -0.1277637481689453, -0.07003721594810486, 0.137965127825737, -0.13588646054267883, 0.09727255254983902, 0.18998591601848602, -0.08902011066675186, 0.13246315717697144, 0.10622351616621017, -0.012019007466733456, -0.07676984369754791, -0.06899499148130417, -0.15230362117290497, 0.05856836214661598, 0.13800281286239624, 0.14266793429851532, -0.14781035482883453, -0.2916075587272644, 0.1529046595096588, 0.0710669532418251, -0.21491549909114838, -0.056409209966659546, -0.045260000973939896, -0.06853941828012466, -0.13905265927314758, 0.13599085807800293, 0.146879181265831, -0.02352888137102127, 0.16142526268959045, -0.040751878172159195, -0.22844168543815613, 0.07061029225587845, 0.2125549167394638, 0.19746096432209015, -0.19002045691013336, -0.10249391943216324, 0.005552508402615786, -0.12101919949054718, 0.1411905288696289, 0.21206693351268768, -0.15205764770507812, -0.15019537508487701, 0.13914130628108978, -0.037043388932943344, 0.06062730774283409, 0.18067295849323273, 0.11281223595142365, -0.23079945147037506, 0.14762988686561584, -0.1745612770318985, -0.21771976351737976, 0.008654636330902576, -0.026737166568636894, -0.011878450401127338, 0.08647351711988449, 0.09280375391244888, 0.1843605786561966, -0.24327687919139862, -0.4352351427078247, 0.0965057834982872, 0.20036298036575317, 0.2748454213142395, -0.0848764032125473, -0.15299537777900696, 0.054201819002628326, 0.058291319757699966, -0.13969610631465912, 0.0910671129822731, 0.18273107707500458, -0.040314871817827225, -0.03482437506318092, -0.08581818640232086, -0.07122882455587387, 0.08990316838026047, -0.18841800093650818, 0.17023137211799622, -0.5615028738975525, 0.056339774280786514, 0.08420146256685257, 0.14012573659420013, 0.022580746561288834, 0.036299578845500946, 0.01429755613207817, 0.07765214145183563, -0.011712005361914635, 0.01839948259294033, -0.08509377390146255, 0.08703641593456268, -0.0800679624080658, 0.11511863768100739, -0.13788041472434998, 0.19577650725841522, 0.18556994199752808, -0.2777703106403351, -0.20319269597530365, 0.20788069069385529, -0.13833293318748474, -0.09419161081314087, 0.09626445174217224, -0.06631488353013992, -0.14450395107269287, 0.03440619632601738, 0.16113173961639404, 0.14689454436302185, -0.05910252779722214, -0.12326464802026749, 0.19636131823062897, -0.09655050933361053, -0.16920962929725647, -0.13405586779117584, 0.0019313088851049542, -0.15024664998054504, -0.08997449278831482, -0.03185182437300682, -0.07277840375900269, 0.012732158415019512, 0.005081010051071644, -0.15096299350261688, 0.011860150843858719, -0.03775400668382645, 0.2411009818315506, 0.00011324245133437216, 0.09015803039073944, -0.018429430201649666, 0.21652793884277344, -0.10397490859031677, 0.2043783813714981, -0.06852409243583679, 0.19693176448345184, 0.0025674421340227127, 0.09292984753847122, -0.11803780496120453, 0.22192521393299103, -0.06404916942119598, 0.01840229332447052, -0.06357386708259583, 0.014306476339697838, 0.002908555092290044, 0.2205035388469696, -0.2238326370716095, 0.11056426167488098, 0.021966785192489624, 0.16098752617835999, 0.033795084804296494, -0.03467465564608574, -0.08616916090250015, 0.12302793562412262, -0.18583662807941437, 0.13003167510032654, -0.24612246453762054, 0.06689200550317764, -0.15558144450187683, 0.058253269642591476, 0.026877569034695625, 0.07684718072414398, 0.047665324062108994, 0.044453542679548264, 0.1273770034313202, -0.08940506726503372, -0.07163818180561066, -0.1008584201335907, 0.07833164930343628, 0.0949244424700737, -0.01909034699201584, -0.02212849259376526, -0.07348708063364029, 0.13025811314582825, -0.1452702134847641, 0.19642579555511475, 0.12360010296106339, 0.14130479097366333, 0.22400325536727905, -0.005861813668161631, -0.1548519730567932, -0.009766077622771263, 0.09892050921916962, -0.0219747144728899, -0.0332353338599205, -0.1265382170677185, -0.056162700057029724, 0.0576297864317894, 0.0253906212747097, -0.12215501815080643, 0.03417421504855156, -0.09889447689056396, 0.10278140008449554, -0.08764608949422836, 0.04351675510406494, 0.15781033039093018, 0.09587228298187256, 0.15677163004875183, 0.08691984415054321, -0.017707539722323418, 0.08111558854579926, -0.14361724257469177, -0.15272943675518036, -0.0196541715413332, -0.13890011608600616, -0.0677134171128273, -0.04165038838982582, 0.0737760066986084, -0.1667904108762741, -0.007707199547439814, 0.23583662509918213, 0.16438741981983185, -0.0043772440403699875, -0.19500944018363953, -0.20093750953674316, -0.0311401579529047, 0.19115476310253143, -0.12155235558748245, -0.09198516607284546, 0.005858954042196274, -0.048023905605077744, -0.20173609256744385, -0.188602015376091, 0.21798740327358246, -0.04052262753248215, -0.13243035972118378, 0.05644923821091652, -0.22860443592071533, 0.06861039996147156, 0.14202088117599487, -0.013465654104948044, -0.09877030551433563, -0.08278224617242813, -0.16103756427764893, 0.23291508853435516, 0.2074989229440689, 0.13666222989559174, -0.14365848898887634, -0.00224784086458385, -0.15251392126083374, 0.0830257385969162, -0.07844807952642441, 0.0004797261208295822, 0.14252562820911407, -0.17095856368541718, -0.0634283646941185, 0.07290701568126678, -0.25129586458206177, -0.051976677030324936, -0.016969038173556328, 0.025732707232236862, 0.05064623802900314, 0.2363806813955307, 0.015401733107864857, 0.08413199335336685, -0.03128470480442047, 0.14237071573734283, 0.029563216492533684, -0.049376338720321655, -0.21902555227279663, -0.1540614515542984, -0.11218266189098358, 0.23605142533779144, 0.09469983726739883, 0.19160747528076172, 0.2307078093290329, 0.027333907783031464, -0.06856901198625565, 0.08597643673419952, 0.13157905638217926, 0.03420117497444153, -0.23429276049137115, 0.07277543842792511, -0.04908498376607895, -0.11914313584566116, -0.21276207268238068, 0.07040099799633026, -0.24939346313476562, -0.07244470715522766, 0.07746724784374237, 0.08076523244380951, -0.16524705290794373, 0.13976871967315674, -0.07322736829519272, 0.1997239887714386, -0.09848544746637344, 0.1555088758468628, -0.12538181245326996, -0.07979146391153336, 0.17154516279697418, 0.03635972738265991, 0.1423727571964264, 0.08722488582134247, 0.16333544254302979, 0.07514311373233795, 0.0669124573469162, -0.04813649505376816, -0.10284895449876785, 0.01965533383190632, -0.07029633969068527, 0.037446945905685425, -0.08989661931991577, -0.06260962039232254, -0.11326373368501663, 0.1628166139125824, 0.06554871797561646, -0.07132770121097565, -0.0731566995382309, 0.12856803834438324, 0.17364880442619324, -0.09418392181396484, -0.06431800872087479, -0.12710490822792053, -0.05252683535218239, 0.08314282447099686, -0.12455681711435318, 0.07916948944330215, -0.05331084504723549, -0.06179472431540489, -0.16878308355808258, -0.0016447606030851603, 0.21108804643154144, 0.16073071956634521, -0.2031254917383194, 0.0893465057015419, -0.1881217658519745, 0.10080768913030624, 0.29675382375717163, 0.08148176968097687, 0.13472306728363037, -0.07617833465337753, -0.17465126514434814, -0.1019967645406723, 0.08070046454668045, 0.05078067258000374, 0.012020484544336796, -0.02008497528731823, -0.006575189996510744, -0.03335122391581535, -0.12413290143013, -0.015646854415535927, -0.1953534632921219, -0.2888902425765991, -0.11384496837854385, 0.008983628824353218, -0.027282625436782837, 0.0009393480140715837, -0.1693885177373886, -0.01523978915065527, -0.06376080214977264, 0.04723575338721275, -0.08442345261573792, -0.06991535425186157, 0.23414212465286255, -0.0838569700717926, -0.06470594555139542, 0.07812170684337616, -0.014289726503193378, 0.006928921677172184, -0.0051949420012533665, -0.04007716476917267, -0.10222835093736649, -0.007892783731222153, -0.0474768728017807, -0.05152556300163269, -0.06697473675012589, -0.19434507191181183, 0.03924758359789848, 0.014933991245925426, 0.1165199875831604, -0.23209063708782196, 0.2796383798122406, 0.14340777695178986, -0.028678661212325096, 0.04511740803718567, 0.19712050259113312, -0.012428944930434227, 0.10896585881710052, 0.09964551776647568, -0.02884979359805584, -0.2793372571468353, -0.05258392170071602, 0.0887957513332367, 0.04976862296462059, -0.1555897742509842, 0.14524565637111664, -0.011026655323803425, -0.14356927573680878, 0.02967204339802265, -0.04346634820103645, -0.1572360247373581, 0.062004245817661285, -0.05352428928017616, 0.003068778896704316, 0.09500755369663239, 0.03703675791621208, -0.1360640823841095, 0.04541280120611191, -0.16172537207603455, 0.04346766322851181, 0.069535031914711, 0.013303452171385288, -0.07256623357534409, -0.052051570266485214, -0.08518732339143753, -0.20098380744457245, -0.16205404698848724, 0.09603068977594376, 0.13118480145931244, -0.045075029134750366, -0.004413879942148924, 0.014135240577161312, 0.027102820575237274, 0.025200175121426582, -0.19079773128032684, 0.10177574306726456, 0.20068196952342987, -0.001451977645047009, -0.021735981106758118, -0.13066120445728302, -0.09517291933298111, 0.2410435676574707, 0.20047979056835175, 0.004698743112385273, -0.002007720060646534, -0.19045203924179077, -0.03961450606584549, -0.09086634963750839, 0.12650974094867706, -0.0980207622051239, -0.21648992598056793, -0.04395235702395439, -0.01879153400659561, -0.15702490508556366, 0.05534631386399269, 0.15559053421020508, -0.12110387533903122, -0.08122342824935913, 0.12370842695236206, 0.12496782839298248, 0.06404507160186768, 0.015745166689157486, 0.0411551259458065, 0.0184798501431942, -0.13664673268795013, -0.16551010310649872, -0.041579410433769226, 0.04564293846487999, 0.02339443564414978, 0.19250473380088806, -0.16641949117183685, 0.010076339356601238, -0.029931683093309402, 0.03416404128074646, 0.15823322534561157, 0.10594408214092255, -0.160560742020607, 0.05625016987323761, 0.05833429470658302, -0.09870685636997223, 0.16274774074554443, 0.015752393752336502, -0.08920401334762573, -0.12159550189971924, -0.15803204476833344, 0.23066233098506927, -0.10701426863670349, 0.22684346139431, -0.04390792176127434, -0.18304692208766937, -0.1298462599515915, 0.1551414281129837, -0.04240957647562027, 0.08294639736413956, -0.02394043654203415, -0.09518162161111832, 0.004511894192546606, -0.0024879209231585264, 0.17454564571380615, 0.15867242217063904, -0.08280175924301147, 0.1576823741197586, -0.25955137610435486, -0.11801572144031525, 0.15363071858882904, -0.02846146561205387, -0.0030768192373216152, 0.06861858814954758, 0.011203998699784279, -0.16728584468364716, 0.1165815219283104, -0.04396411031484604, -0.11835967749357224, 0.01400769129395485, -0.01666111871600151, 0.053426072001457214, -0.04571669176220894, -0.05472928658127785, 0.09007349610328674, 0.08024948090314865, 0.17474035918712616, 0.05997466295957565, 0.03345562890172005, -0.19903607666492462, 0.07395800203084946, -0.12312477827072144, -0.07606972754001617, 0.0023436476476490498, -0.0660116896033287, -0.13268394768238068, 0.04517823085188866, -0.03598535433411598, 0.08531048893928528, -0.12854145467281342, 0.117434561252594, -0.11180954426527023, 0.009039918892085552, 0.17026719450950623, 0.10973373055458069, -0.03596705570816994, -0.000245316099608317, -0.04316612705588341, 0.17138470709323883, 0.08049555867910385, -0.17238998413085938, 0.0471547469496727, -0.04675193876028061, 0.0017678315052762628, 0.00229599024169147, -0.06455902010202408, 0.1077309399843216, 0.009580492042005062, -0.18304190039634705, -0.15538553893566132, -0.03879202902317047, 0.045057617127895355, 0.06252703070640564, -0.09005684405565262, -0.04051214084029198, -0.13671405613422394, -0.13044007122516632, -0.11275579035282135, -0.06612402945756912, -0.0808938592672348, -0.1484849750995636, -0.017735181376338005, -0.12969477474689484, 0.0414772629737854, 0.19124965369701385, -0.027733217924833298, -0.06537152826786041, 0.094970703125, 0.05990375205874443, -0.04381090775132179, -0.0176155436784029, 0.04841666296124458, 0.04321155324578285, 0.09036270529031754, 0.07009171694517136, 0.146321639418602, -0.09424779564142227, -0.124936543405056, 0.034801021218299866, 0.023747336119413376, 0.16098229587078094, 0.03899030759930611, -0.028122158721089363, -0.16140644252300262, 0.020104041323065758, -0.07540591061115265, -0.04941517487168312, -0.03447505086660385, -0.12290864437818527, 0.14164601266384125, -0.028673294931650162, 0.17001758515834808, 0.15671665966510773, 0.01728065311908722, 0.13834623992443085, -0.0521831214427948, -0.0013566827401518822, -0.031985387206077576, 0.08362718671560287, -0.06440096348524094, -0.025905082002282143, -0.02750059962272644, -0.1865396648645401, -0.08348016440868378, -0.1183912605047226, 0.14729206264019012, 0.02672119438648224, 0.01938725635409355, -0.034200746566057205, 0.05186519771814346, -0.3320404887199402, 0.0030285201501101255, 0.08597688376903534, 0.2128273993730545, 0.03887271508574486, 0.030947277322411537, -0.05434345826506615, 0.02422255650162697, 0.021511970087885857, -0.22765810787677765, -0.029949327930808067, -0.02591506391763687, 0.00413521146401763, -0.05761813372373581, -0.10035178065299988, 0.13457953929901123, 0.10236983746290207, 0.018470823764801025, -0.31114378571510315, 0.03670552000403404, -0.11669225990772247, 0.013440101407468319, -0.07619240134954453, -0.03717274218797684, -0.13536374270915985, -0.12824703752994537, 0.08871089667081833, 0.2616582214832306, 0.019566316157579422, 0.09576088190078735, -0.2385406494140625, -0.11748234927654266, -0.023560408502817154, -0.051084913313388824, -0.043536845594644547, -0.1677800714969635, -0.1475076526403427, 0.085478276014328, 0.13313764333724976, -0.16761557757854462, 0.07578013837337494, -0.13791149854660034, -0.12503866851329803, -0.05720020830631256, 0.16334809362888336, 0.1356121301651001, 0.10801015049219131, 0.05345829203724861, -0.09293922781944275, 0.12196212261915207, -0.15531812608242035, 0.13724160194396973, 0.11870333552360535, 0.07969027757644653, -0.035087574273347855, -0.050554919987916946, 0.06605944782495499, 0.11622471362352371, 0.10844722390174866, 0.05037522688508034, 0.07122885435819626, 0.01606711745262146, -0.3842693269252777, 0.2051740437746048, 0.19006554782390594, -0.46853625774383545, 0.07699612528085709, -0.7427698373794556, -0.28197118639945984, -0.43067237734794617, 0.837621808052063, -0.7369330525398254, -0.45679041743278503, -0.9847515821456909, 0.25429490208625793, -0.7363346815109253, 0.27726730704307556, -0.5549482703208923, -0.22360670566558838, -0.1240844652056694, 0.046596311032772064, 0.256489098072052, 0.3171277642250061, -0.05122585594654083, -0.010051107965409756, -0.17306719720363617, 0.0008409369620494545, 0.08140277862548828, 0.08715736865997314, 0.13891826570034027, 0.21442800760269165, 0.10513830929994583, -0.25275787711143494, -0.014232373796403408, -0.014090487733483315, -0.07078597694635391, -0.11113309115171432, -0.034197237342596054, -0.2707182466983795, 0.22813759744167328, -0.003288255538791418, -0.19001828134059906, -0.09880699217319489, -0.03964594379067421, 0.16073894500732422, 0.23245544731616974, 0.08982367813587189, 0.22153329849243164, -0.12294795364141464, 0.1527247130870819, -0.022894179448485374, -0.18596251308918, 0.0742286667227745, 0.10269474983215332, 0.13225221633911133, 0.17576536536216736, 0.0670846477150917, 0.07936999946832657, -0.1479933112859726, 0.10038577765226364, -0.15926766395568848, -0.18093177676200867, -0.031688522547483444, 0.09441874176263809, 0.07574091106653214, -0.052113212645053864, 0.10105060040950775, 0.07320074737071991, -0.11775695532560349, -0.15927885472774506, -0.15170073509216309, -0.047192394733428955, -0.05061032995581627, -0.06795095652341843, -0.09441763907670975, 0.1585395485162735, 0.0664835199713707, 0.29042768478393555, 0.1945260763168335, -0.08979237079620361, -0.01895369589328766, 0.016753217205405235, 0.35853099822998047, 0.07057894766330719, -0.1974460333585739, -0.3404327929019928, 0.11582576483488083, 0.024429410696029663, -0.1741819977760315, 0.2535015046596527, 0.22681185603141785, -0.22961416840553284, -0.045637842267751694, 0.17740432918071747, -0.15941579639911652, -0.15548208355903625, 0.025661274790763855, -0.14170801639556885, -0.2877873182296753, -0.06379149109125137, -0.35667070746421814, 0.07251497358083725, 0.1031058058142662, -0.2510467767715454, -0.18308256566524506, -0.15793359279632568, 0.2976253926753998, 0.257616251707077, -0.08525247871875763, -0.36126720905303955, -0.024429503828287125, -0.2392868846654892, 0.03687894344329834, 0.0576641783118248, -0.054498929530382156, -0.2617312967777252, 0.1821865737438202, 0.21192984282970428, 0.08953256905078888, 0.032512713223695755, 0.003079888178035617, -0.21246865391731262, 0.2671171724796295, 0.03143654391169548, -0.16538739204406738, 0.28578439354896545, -0.03280288726091385, -0.10524606704711914, -0.26277977228164673, 0.29942116141319275, 0.19308555126190186, 0.059558700770139694, -0.03439077362418175, -0.0012060269946232438, 0.16557009518146515, -0.07461542636156082, -0.09263985604047775, 0.1344439536333084, -0.06995152682065964, 0.19544367492198944, -0.19027312099933624, 0.010567047633230686, -0.1897747665643692, 0.0335257463157177, 0.2375558465719223, 0.027328621596097946, -0.13482573628425598, 0.1388089805841446, -0.147379070520401, -0.0034862342290580273, -0.20553426444530487, -0.2477577030658722, -0.004210779443383217, -0.22202204167842865, 0.10902045667171478, 0.1138129010796547, 0.1967190057039261, -0.1331917643547058, 0.02935391291975975, 0.059551872313022614, -0.048610422760248184, 0.23772940039634705, -0.05769063159823418, 0.055476114153862, -0.0706310048699379, 0.09239460527896881, 0.04993174597620964, -0.12337736040353775, 0.16415035724639893, 0.00448960717767477, -0.08688105642795563, 0.0620129331946373, 0.2257922738790512, 0.2921540141105652, 0.1285666823387146, 0.1470148265361786, 0.05124184116721153, -0.10810719430446625, -0.20541229844093323, -0.10202351212501526, -0.1300845444202423, 0.28380104899406433, 0.006988695356994867, -0.14428745210170746, -0.08485211431980133, -0.08181364089250565, 0.2913132905960083, 0.20305688679218292, -0.1964348405599594, 0.051033731549978256, 0.15380553901195526, -0.07147633284330368, 0.0012145604705438018, 0.0675741583108902, 0.2006010115146637, 0.12420447170734406, -0.27265465259552, -0.20460832118988037, -0.09937147051095963, -0.029484432190656662, -0.1609318107366562, 0.1559344232082367, -0.18410444259643555, 0.04574989527463913, 0.1629796177148819, -0.12224388122558594, -0.011206796392798424, -0.1040838435292244, 0.25331172347068787, -0.08580964058637619, -0.10683321952819824, -0.22013752162456512, -0.1005767360329628, 0.2034648060798645, 0.06444793939590454, 0.013488398864865303, -0.13006898760795593, 0.15885798633098602, -0.1853712648153305, -0.08699449896812439, -0.21175281703472137, -0.17032118141651154, 0.1673467755317688, -0.15203143656253815, 0.04770058020949364, -0.06132321059703827, -0.0007995790801942348, -0.011207673698663712, -0.1059453934431076, 0.3902222812175751, -0.1707654446363449, -0.06018838286399841, -0.09106282144784927, -0.11020486801862717, 0.19287963211536407, 0.2804583013057709, 0.028504105284810066, -0.07868869602680206, 0.23079092800617218, 0.08617248386144638, 0.025709763169288635, -0.09044419974088669, 0.0806618481874466, 0.21852359175682068, 0.08712425827980042, -0.12472467124462128, -0.08799061924219131, -0.14575017988681793, 0.13655269145965576, -0.007494306657463312, -0.0919170156121254, 0.2731899619102478, -0.1409522444009781, 0.04756518825888634, -0.15911729633808136, 0.1853295862674713, 0.17332135140895844, 0.19784508645534515, 0.10333718359470367, -0.24359627068042755, -0.18788620829582214, 0.09118100255727768, -0.24077345430850983, -0.04607264697551727, -0.11514897644519806, 0.06918566673994064, -0.0203838050365448, 0.05486162751913071, 0.25693279504776, 0.09855914860963821, -0.10662874579429626, 0.2213883399963379, -0.1479690968990326, -0.10504257678985596, -0.07647265493869781, 0.025992484763264656, 0.00700392248108983, -0.003541460493579507, -0.18517372012138367, -0.07209773361682892, 0.12437248975038528, 0.0788436159491539, 0.14644864201545715, 0.03527940437197685, 0.07566975057125092, -0.1819503903388977, 0.08880901336669922, -0.20397764444351196, -0.08884407579898834, -0.06940062344074249, 0.08214826881885529, 0.10088477283716202, -0.05803977698087692, 0.003972045611590147, -0.3810616135597229, -0.038221389055252075, 0.05036912485957146, -0.03459697961807251, -0.0016791975358501077, 0.041737113147974014, -0.23029018938541412, -0.03082948736846447, 0.13548682630062103, 0.023855533450841904, -0.05608479678630829, 0.12618881464004517, 0.2202562391757965, -0.0425763763487339, -0.04197530075907707, 0.08703810721635818, 0.0019138893112540245, 0.017206672579050064, 0.14757521450519562, -0.16848863661289215, -0.08527196943759918, 0.04170512408018112, 0.07621322572231293, 0.05286138877272606, 0.09151291847229004, -0.08618855476379395, -0.08252636343240738, 0.027068376541137695, 0.007422243244946003, -0.09289725124835968, -0.2306884527206421, 0.10423655062913895, -0.015688341110944748, -0.09062374383211136, 0.04026585817337036, -0.04187987372279167, 0.13882090151309967, 0.012325470335781574, 0.1500999480485916, -0.07896595448255539, -0.07092306762933731, 0.04193127900362015, -0.19013181328773499, 0.19671796262264252, 0.01536050345748663, -0.1700885146856308, 0.10511514544487, -0.1961013376712799, -0.018580688163638115, -0.29921433329582214, 0.024703411385416985, 0.05541018024086952, 0.12772467732429504, -0.21525712311267853, -0.14673782885074615, -0.09922746568918228, 0.11220365762710571, -0.05215108394622803, -0.012734278105199337, 0.10183286666870117, -0.057243797928094864, -0.1317329704761505, 0.08136587589979172, -0.22148782014846802, 0.032183632254600525, 0.09989319741725922, -0.030052702873945236, -0.07954038679599762, -0.022465022280812263, -0.06523904949426651, -0.12188363820314407, 0.19175413250923157, 0.1416979879140854, 0.01652420498430729, -0.011926823295652866, -0.009742075577378273, 0.09357529133558273, -0.2012660801410675, -0.09809524565935135, -0.05111759901046753, -0.03463643044233322, 0.06294064223766327, 0.020495450124144554, -0.04480362311005592, -0.06916344165802002, -0.011427594348788261, -0.25970908999443054, -0.13934506475925446, -0.1765366941690445, 0.30005791783332825, 0.024943534284830093, 0.17300701141357422, 0.045439936220645905, 0.0409943163394928, -0.042205534875392914, 0.029772361740469933, -0.29560214281082153, -0.09066731482744217, 0.07914845645427704, 0.031744662672281265, 0.1371653974056244, -0.14551660418510437, -0.015322350896894932, 0.22009886801242828, -0.021203432232141495, -0.07727255672216415, 0.07604426890611649, 0.09982199966907501, 0.12879161536693573, -0.03223499283194542, 0.13167540729045868, 0.3256680369377136, 0.008485331200063229, -0.027902571484446526, 0.07960247993469238, -0.07771965861320496, 0.022172341123223305, -0.04110844060778618, 0.0799405574798584, 0.06331748515367508, 0.08216045796871185, -0.21384210884571075, -0.17190055549144745, 0.11388051509857178, 0.06709599494934082, -0.020087508484721184, -0.20225945115089417, 0.22603954374790192, 0.07040813565254211, 0.0647069439291954, 0.14859342575073242, -0.07732488214969635, 0.05917149782180786, 0.17324160039424896, 0.2960141599178314, -0.047358088195323944, 0.16972936689853668, 0.024001911282539368, -0.07259180396795273, 0.2535843551158905, -0.15053069591522217, -0.21635673940181732, 0.1306024193763733, -0.10737228393554688, 0.04172228276729584, -0.049543268978595734, 0.12898613512516022, 0.17746330797672272, -0.05179208144545555, 0.13457098603248596, 0.008496660739183426, -0.09767962247133255, 0.03572642803192139, 0.012315959669649601, -0.012159083038568497, -0.002942433813586831, -0.14751717448234558, 0.0005084776785224676, 0.09548777341842651, 0.08111083507537842, -0.042538732290267944, -0.034342143684625626, 0.05968252196907997, 0.12186223268508911, 0.006407684646546841, -0.037332843989133835, 0.028151163831353188, -0.09998192638158798, -0.10564287006855011, -0.2726227343082428, 0.04201560840010643, -0.004908270202577114, -0.0004615751968231052, 0.12156035006046295, -0.15685151517391205, -0.03781462833285332, 0.17328950762748718, -0.028250740841031075, -0.018574923276901245, 0.15331053733825684, -0.14132604002952576, 0.011144840158522129, -0.008623206056654453, -0.07314488291740417, 0.22628410160541534, -0.007142786867916584, 0.03820229694247246, 0.18072117865085602, 0.013151747174561024, -0.17369425296783447, -0.12038636952638626, -0.09514010697603226, -0.007102531846612692, 0.00234198197722435, 0.12728291749954224, 0.0616963729262352, -0.15850578248500824, 0.08239684253931046, 0.12112171947956085, -0.21052247285842896, -0.09845542907714844, 0.02776276133954525, -0.021106785163283348, -0.18798689544200897, 0.06225081905722618, 0.06131948158144951, -0.21029508113861084, -0.08512917906045914, 0.003919973038136959, -0.14223189651966095, -0.09202095866203308, 0.1463119089603424, 0.0761725977063179, -0.148612380027771, -0.007432422135025263, -0.011183504946529865, 0.1111522987484932, 0.17073088884353638, -0.0011317577445879579, -0.09117741882801056, -0.11008555442094803, 0.08306468278169632, 0.05714220926165581, -0.15298573672771454, -0.02367207035422325, 0.03795330598950386, -0.12078355252742767, -0.026012439280748367, -0.15174353122711182, -0.033812347799539566, 0.0725860744714737, -0.15909236669540405, 0.08466307073831558, -0.012604317627847195, 0.02565889060497284, -0.0028678919188678265, 0.08068251609802246, -0.11348693072795868, -0.11343496292829514, 0.03716236352920532, -0.04229595139622688, -0.09762466698884964, 0.039880409836769104, -0.0660523846745491, -0.1174200102686882, 0.03199223056435585, -0.11603417992591858, 0.04486934095621109, 0.0023498411756008863, 0.02045547589659691, 0.10565661638975143, -0.20153996348381042, -0.21392446756362915, 0.1368100792169571, -0.09262478351593018, 0.19461454451084137, 0.10151981562376022, -0.1900123655796051, -0.13474538922309875, 0.14622637629508972, 0.12003965675830841, -0.07592607289552689, -0.23973412811756134, -0.14769309759140015, -0.017631839960813522, 0.00903742853552103, 0.10891116410493851, -0.018762648105621338, -0.11599219590425491, -0.013550856150686741, 0.056425947695970535, -0.011205054819583893, 0.21294884383678436, -0.086344875395298, -0.17565874755382538, 0.03789124637842178, -0.05282789096236229, -0.07837633043527603, 0.0536213293671608, -0.039111584424972534, -0.08205225318670273, -0.018342962488532066, -0.0012846055906265974, -0.005300516728311777, -0.11671347916126251, 0.008007717318832874, -0.0034956885501742363, 0.099192775785923, -0.14783543348312378, 0.07463517785072327, 0.03721530735492706, -0.11404766142368317, -0.06571781635284424, -0.1023126021027565, 0.08464774489402771, 0.09996072202920914, 0.027957618236541748, -0.10658758878707886, 0.020070476457476616, -0.005085861310362816, 0.3132533133029938, -0.032299745827913284, 0.13649582862854004, 0.03650606796145439, -0.10274255275726318, 0.1989593505859375, 0.11149377375841141, -0.18757082521915436, -0.17818522453308105, 0.0011836617486551404, 0.2433861792087555, -0.031457800418138504, 0.09590823948383331, -0.2100774198770523, -0.20348551869392395, 0.10592040419578552, 0.024842847138643265, -0.073624387383461, -0.13918419182300568, 0.06800787150859833, -0.19357368350028992, -0.10210229456424713, 0.17893028259277344, -0.09106120467185974, -0.012004540301859379, 0.11677613109350204, -0.10297241806983948, -0.0042372592724859715, 0.0882973000407219, 0.29183101654052734, -0.18896333873271942, 0.04196203872561455, 0.13183274865150452, 0.014651292003691196, -0.12931501865386963, 0.13483826816082, 0.12831388413906097, 0.2620849907398224, 0.04924270510673523, 0.15874142944812775, 0.013130060397088528, -0.04003050923347473, -0.03435968980193138, 0.03591574355959892, -0.18846827745437622, 0.0412239171564579, -0.054584402590990067, 0.02188209258019924, 0.05546798184514046, -0.004150626715272665, -0.0960451290011406, 0.02966199815273285, 0.08434892445802689, -0.2037489414215088, 0.07360950112342834, 0.022935600951313972, 0.06608033180236816, 0.04053803160786629, -0.150934636592865, -0.08483327180147171, 0.08662550151348114, -0.10452961176633835, 0.21920354664325714, -0.15415190160274506, -0.0967191532254219, -0.0387473925948143, -0.050356294959783554, -0.1340836137533188, 0.14412003755569458, -0.017249519005417824, 0.0028096861205995083, 0.02518833987414837, -0.12856654822826385, -0.06442391127347946, 0.025759471580386162, -0.09358658641576767, -0.025996796786785126, -0.17910966277122498, -0.14606544375419617, 0.10546388477087021, -0.10879979282617569, -0.2582981288433075, 0.018888257443904877, 0.0994490385055542, 0.20510798692703247, -0.029955262318253517, 0.11581271141767502, 0.17286840081214905, -0.11612895131111145, 0.11092671751976013, 0.2247818410396576, 0.04596429690718651, -0.14622628688812256, 0.1227353885769844, 0.04743001237511635, -0.19216500222682953, -0.39104193449020386, -0.03378932178020477, 0.05568981543183327, -0.016866963356733322, 0.024467885494232178, -0.07482250779867172, -0.16814495623111725, 0.06106695160269737, 0.1517924666404724, -0.09121046960353851, -0.06969282776117325, -0.07178522646427155, 0.07213734835386276, 0.20694170892238617, 0.11318806558847427, -0.023183906450867653, -0.21977731585502625, 0.07335317879915237, 0.19349612295627594, -0.1616034209728241, -0.05747678503394127, 0.1638946384191513, -0.098331980407238, 0.1008862853050232, -0.09976353496313095, -0.0036971301306039095, 0.18981638550758362, 0.18721449375152588, -0.11618859320878983, -0.08247807621955872, 0.23728659749031067, -0.06960930675268173, -0.20011794567108154, -0.13324235379695892, -0.18573123216629028, -0.04718146100640297, 0.06587739288806915, -0.16606241464614868, -0.1132272332906723, -0.02678738534450531, 0.00853764358907938, -0.1770622432231903, -0.04546307772397995, -0.17102906107902527, 0.0032380777411162853, 0.11390907317399979, 0.1078302264213562, 0.0069233691319823265, -0.14588600397109985, -0.03791813552379608, -0.2644597291946411, -0.01463544275611639, -0.25726091861724854, 0.14499054849147797, -0.1510854959487915, -0.10737093538045883, -0.12713401019573212, -0.19387951493263245, 0.06053416430950165, 0.16005989909172058, -0.021794434636831284, 0.08277253806591034, -0.09880836308002472, -0.018519623205065727, -0.04809918627142906, -0.14374619722366333, 0.19377611577510834, -0.16421394050121307, -0.09627715498209, 0.025820625945925713, -0.03223049268126488, -0.1588834524154663, -0.21056775748729706, -0.0175563283264637, -0.20304231345653534, 0.022555328905582428, -0.29555344581604004, 0.08423133194446564, 0.136367529630661, -0.2263568490743637, 0.034751590341329575, 0.2516036033630371, 0.013612987473607063, 0.047172509133815765, -0.18558268249034882, 0.46057918667793274, -0.07034973800182343, -0.035323452204465866, 0.18464931845664978, -0.02526429109275341, 0.01910722814500332, 0.2329207807779312, 0.15641582012176514, -0.3075135350227356, 0.006717700976878405, 0.16586162149906158, 0.33151933550834656, -0.1694989949464798, 0.10386831313371658, 0.00022625736892223358, -0.21386688947677612, 0.14923948049545288, 0.14057490229606628, -0.1114099994301796, -0.039189841598272324, 0.15089653432369232, 0.15319165587425232, -0.010088524781167507, -0.04403133690357208, -0.10717369616031647, 0.00894725788384676, 0.0742509514093399, 0.21343214809894562, 0.08880017697811127, -0.14405019581317902, 0.29208019375801086, 0.02384437434375286, -0.013718660920858383, 0.0938907340168953, 0.08892296254634857, -0.004816262051463127, 0.09427101165056229, -0.13935382664203644, 0.017004400491714478, 0.006983633153140545, 0.12597359716892242, -0.42539432644844055, 0.033462442457675934, -0.1260271519422531, 0.03167291358113289, 0.11843563616275787, 0.04835541546344757, -0.03470729663968086, 0.05407483130693436, -0.14413787424564362, -0.038023993372917175, 0.17881251871585846, -0.2801627218723297, 0.06294763088226318, 0.2161136120557785, 0.09690834581851959, -0.018044328317046165, 0.02012382447719574, -0.029768425971269608, -0.14284951984882355, -0.14652584493160248, 0.026842981576919556, 0.17846406996250153, 0.1508750170469284, 0.302931547164917, -0.08342915028333664, -0.3057461678981781, -0.287688672542572, 0.09483814239501953, 0.0012344657443463802, -0.027712354436516762, -0.0748308002948761, -0.25188976526260376, -0.2745676338672638, -0.040879618376493454, 0.12064603716135025, 0.00016832645633257926, -0.05627519637346268, 0.11692511290311813, -0.22797243297100067, 0.03122881054878235, 0.15639090538024902, -0.3244352340698242, -0.08444012701511383, 0.2495044469833374, -0.05987180769443512, -0.08693916350603104, 0.10792398452758789, 0.005990768317133188, 0.11781085282564163, -0.1333969682455063, -0.028071803972125053, -0.2104073315858841, 0.14895384013652802, 0.01820771023631096, -0.05096892639994621, -0.14418311417102814, -0.09414414316415787, -0.1659027487039566, -0.0028942259959876537, -0.06007007509469986, -0.12665247917175293, -0.046975161880254745, 0.06826025992631912, 0.1346612274646759, 0.04930116981267929, 0.1175641342997551, -0.03574056178331375, 0.02346229925751686, -0.14212384819984436, 0.17001354694366455, -0.1221848800778389, 0.08361613750457764, -0.04815031588077545, -0.019303660839796066, 0.05186344310641289, -0.19415688514709473, 0.10082308202981949, -0.0472097173333168, 0.07241712510585785, -0.039730098098516464, 0.052616290748119354, 0.039880990982055664, -0.00887464452534914, 0.03907713666558266, -0.22433686256408691, 0.18016287684440613, -0.01630273275077343, 0.054236654192209244, -0.009098432958126068, 0.14657875895500183, 0.020251775160431862, 0.09367391467094421, 0.06690362095832825, -0.07872819900512695, -0.11191124469041824, 0.2822318971157074, -0.004528372548520565, 0.3250727653503418, 0.048552483320236206, 0.03547217324376106, 0.004289440345019102, 0.036505077034235, -0.19359475374221802, -0.11513564735651016, -0.005779036320745945, -0.022740205749869347, -0.09320373833179474, -0.22486206889152527, -0.13035039603710175, 0.19846482574939728, -0.06390917301177979, 0.09247378259897232, 0.13234201073646545, 0.10222791880369186, 0.10087134689092636, -0.07941106706857681, -0.007105496246367693, -0.17962871491909027, -0.09720461070537567, 0.14969010651111603, 0.09524223208427429, -0.1258222609758377, -0.07365420460700989, -0.023797431960701942, 0.0353991873562336, 0.10836935043334961, -0.02872324176132679, 0.09169947355985641, -0.09233003854751587, -0.013556079939007759, -0.034654565155506134, -0.11179700493812561, -0.05079219117760658, 0.04856332764029503, -0.15081354975700378, 0.04396072030067444, 0.049079131335020065, -0.009334581904113293, 0.1401614546775818, 0.020447837188839912, -0.11875365674495697, -0.18349330127239227, -0.0524798147380352, 0.004516632296144962, -0.14750027656555176, 0.035438138991594315, 0.13416805863380432, 0.3525124192237854, 0.1288987547159195, -0.02351461537182331, -0.35540589690208435, 0.12709681689739227, -0.02967558614909649, -0.060091786086559296, 0.19303108751773834, -0.1728394478559494, -0.197599396109581, 0.13432033360004425, -0.033234670758247375, -0.14935195446014404, -0.11924862861633301, 0.14921186864376068, 0.21714070439338684, -0.3326124846935272, -0.005072721745818853, 0.11458435654640198, -0.02371467836201191, 0.05346538498997688, 0.05172092840075493, -0.07215385884046555, 0.04799668490886688, -0.09132421016693115, 0.1488172560930252, 0.1408102959394455, 0.06707946211099625, 0.02838749624788761, -0.04170587658882141, 0.09617598354816437, 0.17819738388061523, -0.042524632066488266, -0.09821046888828278, -0.01795472763478756, -0.06336746364831924, -0.07765623182058334, 0.04785706475377083, -0.042550504207611084, 0.0152052603662014, 0.1678747981786728, -0.03063059039413929, -0.15326771140098572, 0.2749299705028534, 0.14366203546524048, -0.1650904417037964, 0.03847124055027962, 0.09125254303216934, -0.11986077576875687, 0.060029152780771255, 0.025089778006076813, 0.2519017457962036, 0.09459301829338074, -0.05510064959526062, 0.16359774768352509, 0.014003502205014229, -0.09440669417381287, 0.12769943475723267, -0.01983368583023548, -0.09575846046209335, 0.11727305501699448, -0.015201764181256294, 0.18512265384197235, -0.2776614725589752, 0.10182754695415497, -0.06483478099107742, -0.08800027519464493, -0.05138622596859932, -0.016957689076662064, 0.005867236293852329, 0.18851672112941742, 0.08999226987361908, -0.015141885727643967, -0.07944786548614502, -0.1706194430589676, -0.008702285587787628, 0.08765394240617752, 0.03740198165178299, -0.19588163495063782, -0.05693325772881508, -0.10133116692304611, 0.23496174812316895, -0.07858224958181381, -0.02283119037747383, 0.17237794399261475, -0.17914077639579773, 0.06484392285346985, -0.040805574506521225, -0.15341618657112122, -0.014288602396845818, 0.019666310399770737, -0.2719326317310333, 0.01830211468040943, 0.03299710154533386, -0.06844523549079895, 0.09355958551168442, 0.06362009793519974, -0.034260619431734085, -0.10783754289150238, 0.1378941535949707, -0.010522915981709957, -0.07188478857278824, -0.020752763375639915, 0.11397916078567505, 0.11143861711025238, -0.057413242757320404, 0.031118370592594147, -0.10027442127466202, 0.010555118322372437, -0.005611898843199015, 0.08046016842126846, -0.26861321926116943, -0.5378743410110474, 0.7257482409477234, 0.3218724727630615, -0.4057839810848236, 0.12535764276981354, -0.2158885896205902, 0.07454092800617218, 0.4897589087486267, -0.9107451438903809, 0.8789446353912354, 0.4274120330810547, -0.014010031707584858, -0.430029958486557, 0.1432131826877594, -0.5943220853805542, 0.25891411304473877, -0.09173021465539932, 0.04453660920262337, -0.04490042105317116, 0.06223493441939354, 0.14351463317871094, 0.30610278248786926, 0.0157686285674572, 0.07583233714103699, 0.15936534106731415, 0.10693292319774628, 0.06686176359653473, -0.150096595287323, 0.09126048535108566, -0.18919506669044495, -0.17137640714645386, -0.0007661362178623676, 0.00305468519218266, 0.08623674511909485, 0.20167149603366852, 0.1593645215034485, 0.15335339307785034, 0.010497216135263443, -0.22428828477859497, -0.2231506109237671, 0.054715558886528015, -0.032999731600284576, -0.12303660809993744, 0.10925542563199997, 0.2605504095554352, 0.0819445550441742, -0.050322361290454865, -0.1301133781671524, -0.16076159477233887, 0.030159588903188705, -0.15128901600837708, 0.03445226699113846, -0.18332089483737946, 0.11321363598108292, -0.19297444820404053, -0.16008681058883667, 0.04339634254574776, -0.18631158769130707, 0.20786340534687042, 0.2041766196489334, -0.06722225248813629, -0.03573669493198395, 0.13828860223293304, 0.12913116812705994, 0.013174260035157204, 0.1752491295337677, 0.08557751029729843, -0.15090909600257874, 0.1275506615638733, -0.2146199345588684, 0.24487100541591644, 0.1174156591296196, -0.004129511769860983, 0.10697105526924133, 0.22340182960033417, 0.2197922021150589, 0.20204810798168182, 0.12436558306217194, -0.03777261823415756, 0.21809913218021393, -0.02414439618587494, 0.20190273225307465, -0.1426461786031723, 0.07717521488666534, -0.10025523602962494, 0.11494038999080658, 0.04503048583865166, 0.21184255182743073, -0.12878628075122833, -0.1308358758687973, 0.12279868870973587, -0.21196699142456055, -0.2019226998090744, 0.1740657240152359, -0.04779427498579025, -0.23420953750610352, -0.02538885734975338, 0.0023763198405504227, -0.17059145867824554, -0.041736118495464325, -0.14526516199111938, 0.16990810632705688, -0.022835249081254005, -0.001878643874078989, -0.0008324375958181918, 0.04254482686519623, 0.21084587275981903, -0.14811517298221588, 0.09959723800420761, 0.20674166083335876, 0.10887271910905838, -0.14561180770397186, 0.08121847361326218, -0.06649447232484818, 0.05264073237776756, 0.1377815455198288, -0.05692178010940552, 0.1149420291185379, 0.016899310052394867, -0.2528945803642273, 0.2515139877796173, 0.11615639179944992, -0.1526409089565277, 0.2200377732515335, 0.18094715476036072, 0.09749098867177963, 0.28986096382141113, 0.18761691451072693, 0.09771357476711273, -0.22538650035858154, -0.18130162358283997, 0.14061081409454346, -0.16499753296375275, 0.103498175740242, -0.050067752599716187, 0.05062422156333923, 0.04944697394967079, 0.06957487016916275, 0.18934796750545502, -0.10219811648130417, 0.08236271142959595, 0.1007971316576004, -0.04215432330965996, -0.051807302981615067, 0.2434840202331543, -0.11006926000118256, 0.1211460530757904, 0.09181363880634308, -0.10624689608812332, -0.11175351589918137, -0.009509301744401455, -0.16074635088443756, 0.2117142677307129, -0.10358323901891708, 0.2205212265253067, -0.25247424840927124, 0.0037120666820555925, 0.04571627825498581, -0.018650919198989868, 0.13114367425441742, -0.11740131676197052, -0.14316682517528534, 0.11790282279253006, 0.052832506597042084, 0.13996517658233643, -0.16073885560035706, -0.12887553870677948, -0.07481168210506439, -0.09553438425064087, 0.13690419495105743, -0.17696407437324524, -0.03978553041815758, -0.09960518032312393, 0.1210743710398674, -0.0606563538312912, 0.2881484031677246, -0.04707455262541771, -0.20898525416851044, -0.20015983283519745, 0.1991274356842041, -0.0908573791384697, 0.012586051598191261, 0.0544595830142498, 0.24892671406269073, 0.04437609389424324, -0.3029539883136749, -0.08601752668619156, -0.057532910257577896, -0.240064337849617, -0.015441758558154106, 0.16161707043647766, 0.015975600108504295, 0.11532597988843918, -0.152559295296669, 0.03488260880112648, -0.09693269431591034, 0.15227076411247253, 0.24655930697917938, 0.19651265442371368, -0.1311401128768921, -0.09104336053133011, -0.19149090349674225, 0.19281786680221558, -0.21541865170001984, -0.1705143004655838, -0.029332729056477547, 0.07127493619918823, -0.0657152459025383, -0.22315511107444763, -0.018972355872392654, -0.11437463760375977, 0.11063540726900101, 0.045996442437171936, -0.19916680455207825, -0.14722518622875214, 0.0712708979845047, -0.17719726264476776, -0.10701102018356323, -0.011310522444546223, -0.08686203509569168, 0.1401878297328949, 0.03605514019727707, -0.21721896529197693, -0.17346231639385223, 0.024278126657009125, -0.1795276403427124, 0.0659354031085968, 0.03752706199884415, -0.02025308832526207, 0.040980901569128036, -0.09786773473024368, 0.07612944394350052, -0.12128979712724686, 0.08121398836374283, -0.33984628319740295, -0.03188411146402359, 0.0791749581694603, -0.22462435066699982, -0.06033375859260559, 0.044638942927122116, 0.31761571764945984, -0.06565410643815994, -0.1470327377319336, -0.1666211038827896, -0.2211177796125412, 0.3392309844493866, -0.3152899146080017, 0.0625758022069931, 0.36715641617774963, 0.00012174961739219725, 0.46140050888061523, -0.07239994406700134, 0.23567616939544678, 0.0799119770526886, 0.050460342317819595, -0.2982296049594879, -0.16673435270786285, -0.14536835253238678, -0.019979484379291534, -0.0437299981713295, 0.01114107109606266, -0.08173653483390808, -0.16936057806015015, 0.09172843396663666, 0.17177657783031464, 0.08565027266740799, 0.19440242648124695, -0.05910969153046608, -0.11680174618959427, -0.21839885413646698, 0.20617838203907013, 0.06883081793785095, 0.07378733903169632, 0.084048330783844, 0.18628555536270142, -0.10770583897829056, 0.12536726891994476, 0.15547114610671997, -0.039934322237968445, -0.11321191489696503, -0.13416652381420135, 0.07975350320339203, 0.09353635460138321, 0.20431315898895264, 0.2058350294828415, 0.07503359764814377, -0.03611878305673599, 0.020498668774962425, 0.08592996001243591, 0.05098309740424156, -0.04150868579745293, -0.004349241964519024, 0.08317162841558456, 0.04683847725391388, -0.07864067703485489, 0.18916526436805725, -0.13530173897743225, 0.014189998619258404, 0.280335932970047, 0.04099560156464577, -0.1822100430727005, -0.20221783220767975, 0.12676236033439636, 0.013703765347599983, -0.11956876516342163, 0.17474102973937988, -0.15793144702911377, -0.05197281390428543, -0.04899923875927925, 0.13096173107624054, -0.059903934597969055, -0.07212623208761215, -0.20536425709724426, 0.10165506601333618, 0.05163756012916565, 0.12295573949813843, -0.1739819496870041, -0.15256698429584503, -0.15531271696090698, 0.3476977050304413, 0.03646542504429817, -0.07346754521131516, 0.02368083782494068, -0.17169101536273956, -0.04043683782219887, 0.09428447484970093, -0.029218221083283424, -0.04345395416021347, 0.12260992079973221, -0.16670972108840942, -0.28917965292930603, -0.13738812506198883, 0.07151216268539429, -0.10605720430612564, 0.10901934653520584, 0.2666310966014862, 0.08449771255254745, -0.039734672755002975, 0.12840399146080017, 0.038962703198194504, -0.0018578814342617989, 0.08877547830343246, -0.0541670136153698, -0.014074328355491161, -0.017478717491030693, 0.16469411551952362, 0.027476981282234192, -0.06032704934477806, -0.04501409828662872, 0.1652587503194809, 0.08843618631362915, -0.1002495139837265, 0.13215714693069458, -0.21190515160560608, 0.1277492493391037, 0.003227351466193795, -0.1059948280453682, -0.15509745478630066, -0.002004166366532445, 0.09603651612997055, 0.1833091676235199, -0.19325415790081024, -0.09857666492462158, 0.024808213114738464, 0.17665709555149078, 0.04378131404519081, 0.17353196442127228, -0.10417313873767853, 0.11906253546476364, 0.010324615985155106, -0.1939597725868225, 0.003916984423995018, 0.01222392451018095, -0.06407095491886139, -0.08210667222738266, 0.12796005606651306, -0.2809180021286011, 0.025568777695298195, 0.21897515654563904, 0.09277734160423279, -0.04531488195061684, 0.106528140604496, -0.12454728037118912, -0.26618584990501404, -0.31575968861579895, -0.12779313325881958, -0.04277539998292923, 0.028382306918501854, -0.22212637960910797, -0.1766197830438614, -0.08617205172777176, 0.17457270622253418, -0.1290038675069809, 0.029275797307491302, 0.08195328712463379, 0.15031521022319794, 0.07049605995416641, 0.004269347991794348, -0.12549489736557007, -0.17567622661590576, -0.16815562546253204, -0.031505484133958817, 0.13893501460552216, -0.11696420609951019, 0.05173417553305626, 0.017773883417248726, -0.04150961712002754, -0.07879462093114853, -0.01751525327563286, 0.2426048070192337, 0.13977409899234772, 0.04329584538936615, -0.07743338495492935, -0.028829412534832954, 0.01962592639029026, 0.12833547592163086, -0.041298944503068924, -0.12391645461320877, 0.06045117229223251, -0.09605632722377777, -0.039538417011499405, 0.0653325617313385, -0.12440803647041321, -0.07925906777381897, 0.10666249692440033, -0.030125362798571587, -0.20912478864192963, -0.0879134088754654, -0.06261079013347626, -0.05903329327702522, 0.16710668802261353, 0.1321117877960205, -0.00692518288269639, 0.05906476825475693, -0.06437116116285324, 0.04949473962187767, 0.13806794583797455, 0.1895918995141983, 0.009089707396924496, -0.18091623485088348, 0.1659204065799713, 0.09666478633880615, -0.18743781745433807, 0.06667590886354446, 0.09656384587287903, -0.08112948387861252, -0.10043933987617493, -0.12370651960372925, 0.248198002576828, 0.03617549315094948, 0.053098440170288086, 0.011865904554724693, -0.06398646533489227, 0.015644723549485207, 0.2904757261276245, 0.11601684987545013, -0.14608661830425262, -0.2599566578865051, -0.21641625463962555, 0.01085945125669241, 0.13010147213935852, 0.09186171740293503, 0.11696401983499527, -0.18759788572788239, 0.10724600404500961, 0.1347198188304901, -0.00039185283822007477, 0.11851074546575546, 0.1320050060749054, -0.2036479413509369, 0.15030261874198914, 0.04512942582368851, -0.268875390291214, -0.17403122782707214, 0.10308182239532471, -0.04971027746796608, -0.1704111397266388, -0.006705843843519688, -0.11058677732944489, 0.04717506840825081, 0.20868456363677979, -0.07577414065599442, 0.13580571115016937, -0.08234275877475739, 0.06459057331085205, -0.021069828420877457, 0.23624207079410553, -0.06673718988895416, 0.15129956603050232, 0.008021478541195393, -0.049558017402887344, 0.05094040185213089, -0.2177528589963913, -0.10712165385484695, -0.1288643479347229, 0.17177826166152954, 0.2562029957771301, -0.02236134000122547, -0.18218018114566803, 0.05010662600398064, 0.028825193643569946, -0.040145549923181534, 0.03854254633188248, -0.07126861810684204, 0.22597120702266693, -0.1876005083322525, -0.17950187623500824, -0.16667553782463074, 0.0670567974448204, 0.10880984365940094, 0.15665513277053833, -0.19385576248168945, -0.1122153103351593, -0.05194741487503052, -0.16808964312076569, -0.12296060472726822, 0.1125442236661911, -0.14091099798679352, -0.10206356644630432, 0.02049914002418518, -0.1890251785516739, 0.027407046407461166, 0.021590905264019966, 0.102670818567276, 0.11447449773550034, 0.16546499729156494, 0.18825115263462067, -0.06218930706381798, -0.18941469490528107, -0.02573196217417717, -0.07781874388456345, -0.03473572060465813, -0.05888070538640022, 0.0838446319103241, 0.24206992983818054, 0.0916474238038063, 0.06583282351493835, 0.1452971249818802, -0.22082097828388214, 0.06611623615026474, -0.2236078679561615, -0.13469697535037994, -0.19956625998020172, -0.16259460151195526, 0.1376684159040451, -0.08601484447717667, 0.03711303696036339, -0.00405970960855484, -0.13385942578315735, -0.16118736565113068, -0.0305936262011528, -0.0177841167896986, 0.20545724034309387, -0.14041683077812195, -0.1439407467842102, -0.08567414432764053, -0.057667847722768784, 0.09975609928369522, 0.03398476913571358, -0.21328267455101013, 0.0813639685511589, -0.0017058984376490116, 0.04828270897269249, 0.09971825033426285, 0.09005826711654663, -0.2279607057571411, 0.10035333782434464, 0.061363041400909424, -0.2092134654521942, -0.04768667370080948, 0.129561185836792, -0.0023063893895596266, -0.025663182139396667, 0.31555670499801636, 0.12465500831604004, 0.1735047996044159, -0.04707026854157448, 0.03548688814043999, -0.0694570317864418, -0.19787877798080444, -0.04764867573976517, 0.06565029174089432, -0.0439203642308712, 0.027688587084412575, -0.05311758443713188, -0.1804499626159668, -0.16467252373695374, -0.07083776593208313, 0.06948945671319962, -0.06603848189115524, -0.2622831463813782, -0.18620261549949646, 0.041142478585243225, -0.09912949055433273, -0.0710214152932167, -0.0904444232583046, 0.05393796041607857, 0.04656019061803818, -0.026343481615185738, -0.026354506611824036, -0.013116978108882904, 0.08777385205030441, 0.014945139177143574, 0.1746874898672104, -0.02061031013727188, 0.15859611332416534, -0.08619176596403122, 0.10151372104883194, 0.08309319615364075, -0.2203604131937027, -0.01132963690906763, 0.26651570200920105, -0.07235933095216751, -0.024611573666334152, -0.03449054807424545, -0.030904479324817657, -0.05806358903646469, -0.019363636150956154, -0.15917807817459106, 0.026241721585392952, -0.03192299231886864, -0.3986794352531433, -0.12566162645816803, -0.016764070838689804, 0.10405643284320831, -0.051233090460300446, 0.1701509952545166, -0.1056562289595604, 0.08892536908388138, -0.08725323528051376, -0.15246325731277466, 0.1802825778722763, -0.222536101937294, 0.051866572350263596, 0.07436662912368774, -0.0920969694852829, 0.12872140109539032, -0.04060738906264305, 0.0454774908721447, -0.031437914818525314, -0.16141727566719055, 0.06269974261522293, -0.24218297004699707, 0.0400402806699276, 0.05766451731324196, 0.089845210313797, -0.12443775683641434, -0.02294878289103508, -0.059430185705423355, 0.07035031169652939, -0.028015026822686195, -0.057419296354055405, 0.05775871500372887, -0.18054775893688202, -0.14580440521240234, -0.06607890874147415, -0.036837272346019745, -0.0572836734354496, 0.12876440584659576, 0.04916177690029144, 0.0013875586446374655, 0.19079631567001343, 0.013602766208350658, -0.14164577424526215, 0.1152631938457489, 0.02619652822613716, -0.3102254569530487, -0.16013461351394653, 0.1836094707250595, -0.10864054411649704, 0.03285733237862587, -0.08352671563625336, 0.1201968714594841, 0.27919238805770874, 0.13514555990695953, -0.10034436732530594, 0.2725338339805603, -0.006628386676311493, -0.19133998453617096, 0.12405985593795776, 0.04305219650268555, 0.018565000966191292, 0.01957213692367077, -0.13268829882144928, 0.027169743552803993, 0.02284802682697773, -0.13455639779567719, -0.031518030911684036, -0.10918917506933212, -0.016210181638598442, -0.04842495918273926, -0.05927488952875137, -0.18943165242671967, -0.13611508905887604, -0.0711788535118103, 0.06135588139295578, -0.0014715001452714205, -0.07044824957847595, 0.08533954620361328, 0.16890808939933777, 0.012759711593389511, 0.1184014230966568, -0.10171694308519363, -0.14398998022079468, 0.1586863100528717, 0.13427571952342987, 0.06770381331443787, 0.14401647448539734, -0.08937247097492218, -0.11709597706794739, -0.027361154556274414, 0.08173712342977524, -0.03638765215873718, 0.14402197301387787, 0.12317660450935364, 0.0680721253156662, -0.015445324592292309, -0.010326995514333248, 0.27974095940589905, -0.037693336606025696, -0.09355468302965164, 0.037068016827106476, 0.015414074994623661, -0.01883535087108612, -0.0007380717433989048, 0.10305234789848328, -0.1169540286064148, 0.05777866393327713, 0.11102407425642014, -0.10354296118021011, 0.09019134938716888, 0.07633882015943527, 0.12527583539485931, 0.0907549187541008, -0.07786520570516586, -0.05128210410475731, -0.17490841448307037, -0.08954890817403793, -0.05026855319738388, 0.050310492515563965, -0.055054567754268646, 0.09104469418525696, 0.019351692870259285, 0.07070936262607574, -0.0686860904097557, 0.11120553314685822, -0.08468407392501831, 0.1515708714723587, -0.06712421029806137, -0.0671316534280777, 0.07925637811422348, 0.10464711487293243, 0.005108906887471676, -0.14154818654060364, -0.006972751580178738, 0.0806816890835762, -0.149851456284523, -0.027141913771629333, -0.0582641176879406, 0.015953324735164642, 0.05480267480015755, 0.05159754678606987, -0.011393170803785324, -0.16146087646484375, 0.06409560143947601, -0.283347487449646, 0.2105461061000824, 0.08023460954427719, 0.04954318702220917, -0.024976778775453568, 0.16277973353862762, 0.014839492738246918, 0.019337261095643044, -0.07801831513643265, -0.01775459758937359, 0.028041373938322067, 0.16752105951309204, 0.02053779736161232, -0.22013409435749054, -0.11869292706251144, -0.1265822798013687, -0.07926608622074127, 0.09152238070964813, 0.20860828459262848, 0.21580080687999725, 0.09784628450870514, -0.041015710681676865, -0.20552904903888702, -0.03378962725400925, 0.046063486486673355, 0.1839320808649063, -0.020485246554017067, 0.047838836908340454, 0.017121171578764915, -0.10443658381700516, 0.038114625960588455, -0.023254405707120895, 0.04934769123792648, 0.07120631635189056, -0.1261930912733078, -0.11537091434001923, -0.013930542394518852, -0.24487385153770447, 0.06943503767251968, -0.039355915039777756, 0.022482605651021004, -0.004094525706022978, -0.03285198658704758, -0.04149291664361954, 0.03166918456554413, 0.05001787841320038, -0.006691106129437685, 0.06278826296329498, 0.2783275544643402, 0.1786765158176422, -0.08413247019052505, 0.06022072583436966, -0.014374560676515102, 0.007032681256532669, 0.04743112996220589, -0.12408866733312607, -0.11690633744001389, -0.1583869755268097, 0.18873445689678192, -0.19794778525829315, -0.156126007437706, 0.08725499361753464, -0.11427033692598343, -0.10417531430721283, 0.06170815974473953, 0.04492362588644028, -0.10167653858661652, -0.18223144114017487, -0.010415265336632729, -0.12650030851364136, -0.10941555351018906, 0.15850730240345, 0.05591261014342308, 0.06694399565458298, -0.15237051248550415, -0.16126467287540436, 0.1487860083580017, -0.008337142877280712, 0.2712683081626892, -0.019459879025816917, 0.0676552802324295, -0.1636960208415985, 0.2420174479484558, 0.08988756686449051, -0.07761140167713165, 0.13014698028564453, 0.019795583561062813, 0.03389333561062813, -0.01598886214196682, 0.1080428883433342, -0.07960627973079681, 0.21784664690494537, -0.1603085696697235, -0.37287673354148865, -0.1515803188085556, 0.14862079918384552, -0.25714775919914246, 0.1491604745388031, 0.15589123964309692, -0.12668545544147491, 0.005663169082254171, -0.14462435245513916, 0.06532516330480576, -0.10311639308929443, 0.07894282788038254, -0.10970564931631088, -0.07805564254522324, -0.1678953617811203, -0.033437855541706085, -0.026381071656942368, 0.006596386898308992, 0.1784670352935791, -0.06104722246527672, 0.16764135658740997, -0.0858478918671608, -0.14153382182121277, -0.30666080117225647, 0.22211326658725739, -0.22309495508670807, 0.0897580087184906, 0.07367806881666183, -0.038833554834127426, -0.09146735072135925, 0.037213243544101715, -0.009741608053445816, -0.1117422878742218, 0.17589934170246124, -0.13484355807304382, -0.0880347341299057, -0.10742892324924469, 0.028804605826735497, 0.011575152166187763, -0.05542664974927902, 0.32213589549064636, 0.06825880706310272, 0.00334674003534019, 0.006485743913799524, 0.14273113012313843, -0.07917667180299759, 0.1362408697605133, -0.1739305555820465, -0.13600307703018188, -0.024544212967157364, 0.12627682089805603, -0.265843003988266, 0.08200975507497787, 0.2271329015493393, -0.22273115813732147, 0.17726971209049225, -0.06076192110776901, 0.19085977971553802, -0.05153360962867737, -0.11212158203125, -0.16122034192085266, -0.12422037869691849, 0.10815142840147018, -0.04848644137382507, -0.09990902245044708, 0.09949386864900589, -0.020279012620449066, 0.14672228693962097, 0.08725360035896301, 0.08323072642087936, 0.29135286808013916, -0.22410356998443604, 0.1853409707546234, 0.09362629801034927, -0.16313183307647705, 0.0868072435259819, 0.06964603066444397, 0.035934917628765106, -0.0965314656496048, 0.012924659065902233, -0.022861484438180923, -0.023790715262293816, 0.1034417673945427, 0.15314549207687378, -0.15219686925411224, 0.01488200481981039, 0.197847381234169, -0.1979202926158905, -0.049118269234895706, 0.09774946421384811, -0.06974315643310547, -0.09588292986154556, 0.04377072677016258, -0.18192122876644135, -0.0331343375146389, -0.1602618545293808, -0.22563225030899048, 0.05659975856542587, 0.046815261244773865, -0.12827089428901672, 0.17628896236419678, -0.0702667236328125, 0.2212892770767212, 0.07307248562574387, -0.0060781086795032024, -0.07466895133256912, 0.059475127607584, -0.0007098924834281206, 0.18399618566036224, 0.11690659075975418, -0.09875403344631195, 0.031474627554416656, 0.07793526351451874, -0.06457015126943588, -0.11506329476833344, -0.06412725150585175, 0.1300380825996399, -0.07475069910287857, -0.0332852266728878, 0.15036721527576447, -0.12225332856178284, 0.16732244193553925, -0.027240300551056862, -0.03916189447045326, 0.01641586236655712, -0.060398612171411514, 0.17716047167778015, 0.03952270746231079, -0.12030434608459473, -0.04519752040505409, 0.04233070835471153, -0.06349734216928482, -0.027513105422258377, -0.03690897673368454, 0.050376296043395996, -0.06905396282672882, -0.22261236608028412, -0.18085332214832306, 0.0935169979929924, -0.05216037109494209, -0.09373480826616287, 0.22274518013000488, -0.09309065341949463, -0.025608299300074577, 0.16128955781459808, 0.01790810003876686, -0.04401886463165283, 0.2760688364505768, -0.10003785043954849, -0.14571523666381836, 0.04587683826684952, 0.01900198496878147, -0.21179045736789703, -0.01017756387591362, -0.11090148985385895, -0.2205035239458084, -0.1455247402191162, -0.15872426331043243, 0.006151883862912655, 0.019463295117020607, 0.17326797544956207, -0.09342945367097855, 0.12946398556232452, 0.04680434241890907, -0.05465584248304367, -0.015957914292812347, -0.035281021147966385, -0.01074199564754963, -0.029973777011036873, -0.12225302308797836, -0.008814471773803234, 0.17215955257415771, -0.16327506303787231, 0.03442241996526718, -0.10822700709104538, 0.05459131672978401, -0.07305989414453506, -0.03106980212032795, 0.08814016729593277, -0.21706615388393402, 0.019091695547103882, -0.011809821240603924, 0.08308228850364685, -0.09535889327526093, -0.008568271063268185, -0.17579108476638794, -0.08803853392601013, 0.11346320807933807, -0.17889244854450226, -0.020503083243966103, 0.20384617149829865, -0.0872369259595871, 0.034545931965112686, -0.0851965844631195, -0.04368717968463898, -0.05843072384595871, 0.03662019968032837, 0.028538279235363007, -0.03299175202846527, -0.008901198394596577, -0.056015294045209885, 0.15974624454975128, 0.09710943698883057, -0.05623030290007591, -0.09816744178533554, 0.02644982375204563, 0.08250849694013596, 0.06939177960157394, -0.09720078855752945, 0.0897388756275177, 0.10498975962400436, -0.005874530412256718, 0.07589495927095413, 0.6196084022521973, 0.26166200637817383, 0.42679154872894287, -0.8623816967010498, -0.44107043743133545, 0.05573667958378792, 0.22838322818279266, -0.0895281583070755, 0.3876327574253082, 0.2720828950405121, -0.7604173421859741, 0.34916308522224426, -0.22547999024391174, -0.6245555281639099, 0.010700022801756859, -0.25896894931793213, -0.13812355697155, -0.20387069880962372, 0.3080732822418213, -0.4311648905277252, 0.06522300839424133, 0.08647063374519348, -0.12044045329093933, -0.16270293295383453, -0.4130704998970032, 0.04562627151608467, -0.12658889591693878, -0.062263909727334976, 0.07272929698228836, -0.2370755672454834, 0.18662387132644653, 0.050854362547397614, -0.17994481325149536, -0.1399955451488495, 0.14128097891807556, -0.15125441551208496, -0.03283034637570381, -0.025888103991746902, 0.1620463728904724, -0.1346668004989624, -0.1959989070892334, -0.015857059508562088, -0.09013424813747406, 0.06209994852542877, -0.05024481937289238, 0.13375064730644226, 0.09294600784778595, 0.18437504768371582, -0.08451637625694275, 0.16238316893577576, -0.13933196663856506, -0.27488335967063904, -0.050650861114263535, -0.1715063899755478, -0.23898614943027496, 0.19388926029205322, 0.09470449388027191, -0.2811441421508789, 0.02575353905558586, -0.205905020236969, 0.0525977648794651, 0.006165191065520048, -0.07206883281469345, 0.2620668411254883, -0.17324486374855042, -0.12109703570604324, -0.07497924566268921, 0.3563039004802704, 0.20664966106414795, 0.17765112221240997, 0.3142490088939667, 0.17589840292930603, -0.17790627479553223, -0.09078821539878845, 0.0768684521317482, -0.07729222625494003, 0.19064673781394958, 0.17099623382091522, -0.031582627445459366, -0.1953170746564865, 0.22425337135791779, -0.05049452558159828, -0.06202700734138489, -0.03500288724899292, -0.02501535229384899, -0.0895807072520256, 0.10851045697927475, -0.1732206493616104, 0.1777891218662262, 0.18370741605758667, 0.07426072657108307, 0.11790701001882553, -0.2457544505596161, -0.2637585997581482, -0.17144042253494263, -0.10868406295776367, -0.18091601133346558, 0.21566176414489746, 0.0810273140668869, 0.0251169353723526, -0.10312575846910477, 0.21084922552108765, -0.0798865556716919, -0.037798888981342316, 0.21093982458114624, 0.06940124183893204, -0.24701261520385742, 0.16466034948825836, -0.10448199510574341, -0.030948715284466743, -0.17968609929084778, -0.046743251383304596, -0.10690023005008698, -0.11190056055784225, -0.08016308397054672, 0.046621739864349365, -0.12947599589824677, -0.1486264020204544, 0.21690720319747925, 0.06794970482587814, -0.02805282175540924, 0.13872207701206207, 0.0240141861140728, -0.004803813528269529, 0.13028287887573242, 0.07559870183467865, -0.026751112192869186, -0.08721395581960678, -0.03291521593928337, 0.20470812916755676, -0.14317184686660767, -0.02546856924891472, 0.17242343723773956, -0.248441681265831, -0.1495812088251114, 0.1692524254322052, 0.026000306010246277, 0.02015584520995617, -0.004100644029676914, 0.08582427352666855, -0.08756383508443832, 0.0282595194876194, 0.17507420480251312, -0.03281046450138092, -0.179323211312294, -0.07343798130750656, -0.051146261394023895, -0.02509945258498192, 0.11888431012630463, -0.027808232232928276, -0.19320343434810638, -0.00625225156545639, -0.13500523567199707, -0.089401014149189, -0.028124559670686722, -0.08892343193292618, 0.24707214534282684, 0.08005378395318985, 0.06576790660619736, 0.15423448383808136, -0.0818316861987114, 0.13660909235477448, 0.13878941535949707, -0.06337878853082657, -0.11998140811920166, 0.014679184183478355, -0.2749679982662201, 0.007096243556588888, -0.4210657775402069, -0.034743789583444595, 0.21066464483737946, -0.22425834834575653, 0.275326669216156, -0.08009030669927597, 0.20306161046028137, 0.18238629400730133, -0.18991011381149292, 0.14000621438026428, -0.2456938922405243, 0.02224751189351082, -0.095631442964077, 0.07141449302434921, -0.019963448867201805, -0.11707427352666855, 0.23649905622005463, -0.041858743876218796, -0.15137042105197906, -0.012324010021984577, -0.10070516169071198, 0.08701547980308533, 0.09295957535505295, -0.03974674642086029, -0.05773746594786644, 0.13951189815998077, -0.14652003347873688, -0.10712806135416031, 0.09301437437534332, -0.11913348734378815, 0.05862434580922127, -0.03974255546927452, -0.1669320911169052, 0.09232781827449799, 0.2575009763240814, 0.09530740231275558, -0.09053884446620941, 0.15762485563755035, -0.09505344182252884, -0.11436063051223755, 0.09785117954015732, 0.1529044657945633, 0.21979789435863495, 0.37332817912101746, -0.15352098643779755, 0.02523389831185341, -0.03322005271911621, 0.11413156241178513, 0.11940156668424606, 0.06918244063854218, -0.1833653748035431, -0.026617011055350304, -0.18468937277793884, 0.1987335979938507, -0.05567504093050957, -0.1851835548877716, -0.1290075182914734, 0.0838109627366066, 0.031010853126645088, 0.38250651955604553, 0.03079230524599552, 0.10203271359205246, -0.0032987799495458603, 0.03769770637154579, -0.03604518622159958, 0.23870058357715607, 0.13138242065906525, -0.11531282216310501, -0.19949527084827423, -0.2015949785709381, -0.1250654011964798, 0.03707566112279892, 0.3648299276828766, -0.10292031615972519, 0.041938237845897675, 0.021322211250662804, -0.2656783163547516, -0.27124693989753723, -0.07163666933774948, 0.22297801077365875, 0.0014691445976495743, -0.03953875973820686, -0.21453696489334106, 0.058155473321676254, 0.03107416070997715, -0.006594480946660042, -0.004441889934241772, 0.11978132277727127, -0.0533258281648159, 0.30146026611328125, -0.2676679491996765, 0.14780312776565552, -0.2577548623085022, -0.1321130096912384, 0.30390825867652893, -0.13849808275699615, -0.1528044492006302, -0.018125779926776886, -0.2302752584218979, 0.013533050194382668, 0.015544440597295761, -0.045541584491729736, 0.08641713112592697, -0.1324913650751114, -0.16922542452812195, 0.02284015715122223, 0.01565629616379738, -0.020763957872986794, 0.013883312232792377, -0.05235235020518303, 0.04581546038389206, 0.08247373253107071, -0.13617472350597382, 0.16343702375888824, 0.0915290117263794, -0.019756775349378586, -0.003903196891769767, -0.1461465209722519, -0.04337989538908005, 0.054754070937633514, 0.006363066378980875, -0.2448185384273529, 0.29098159074783325, -0.06539829075336456, 0.0348169282078743, -0.12013033032417297, -0.0006226327968761325, -0.03382280096411705, -0.13251955807209015, 0.12079751491546631, 0.06799264997243881, 0.04339795187115669, -0.047790732234716415, 0.060241036117076874, -0.22201308608055115, -0.08635790646076202, -0.029176590964198112, 0.058235958218574524, 0.06487768143415451, 0.0637194886803627, 0.05142414942383766, 0.014599356800317764, 0.21415406465530396, -0.13797830045223236, 0.17539256811141968, -0.12709498405456543, 0.1753966212272644, 0.10372801870107651, -0.24346409738063812, 0.14275513589382172, 0.14546339213848114, 0.037463005632162094, -0.1399793028831482, 0.2943101227283478, -0.053679585456848145, 0.016950901597738266, 0.05049503594636917, 0.08655958622694016, 0.04191119223833084, 0.005588531494140625, -0.09049315005540848, 0.04660407826304436, 0.14382243156433105, 0.029853101819753647, 0.034624531865119934, -0.06176897510886192, 0.043137386441230774, -0.14071546494960785, 0.014446582645177841, -0.10220283269882202, -0.11614704132080078, 0.1289377510547638, -0.010287749581038952, 0.10585042089223862, -0.09364251047372818, -0.013998182490468025, 0.0013136104680597782, -0.235734224319458, 0.09866262227296829, 0.1021837666630745, 0.18586939573287964, -0.00025942482170648873, -0.008788731880486012, 0.11906686425209045, -0.04677942767739296, -0.062395792454481125, -0.13307355344295502, 0.12619037926197052, 0.16193887591362, 0.02096426486968994, -0.015191266313195229, -0.21580806374549866, -0.18070437014102936, 0.07730188965797424, 0.09960131347179413, 0.1675732433795929, 0.0851149708032608, -0.042557377368211746, -0.07162610441446304, -0.14583803713321686, 0.07600431144237518, -0.22164039313793182, -0.14643757045269012, -0.12211095541715622, -0.1443176567554474, -0.14738164842128754, 0.11957091093063354, -0.11179465800523758, -0.07478882372379303, 0.10875045508146286, 0.24945947527885437, 0.03183490410447121, -0.110476054251194, -0.16017092764377594, -0.16966907680034637, -0.027345653623342514, -0.14208780229091644, -0.2223622053861618, 0.1651030331850052, 0.05227687209844589, 0.12690524756908417, 0.15238428115844727, 0.023882491514086723, -0.15974867343902588, -0.012578208930790424, -0.0008982296567410231, 0.062351442873477936, -0.19514794647693634, -0.11409906297922134, -0.07554031908512115, -0.029917413368821144, -0.0915529727935791, 0.07133366912603378, 0.16997386515140533, -0.13722111284732819, -0.10953190922737122, -0.16828687489032745, -0.22953656315803528, 0.009735695086419582, 0.025711938738822937, 0.22769099473953247, -0.12041020393371582, -0.1483888179063797, 0.06116356700658798, -0.011359875090420246, 0.1435052454471588, 0.22307592630386353, 0.1283998042345047, -0.015285744331777096, 0.0670386329293251, 0.10888271778821945, 0.025848697870969772, 0.0371861569583416, -0.019060369580984116, -0.06364155560731888, 0.21504279971122742, 0.04347163438796997, -0.07060474902391434, -0.10473069548606873, -0.058000195771455765, 0.18508443236351013, -0.0009457241976633668, -0.05972342938184738, -0.004720307420939207, -0.04784392565488815, -0.15843547880649567, 0.0946580171585083, -0.04908958822488785, -0.1107463613152504, -0.12308277934789658, 0.13538812100887299, -0.00202924944460392, -0.06535525619983673, 0.25741177797317505, -0.143330916762352, -0.05665726214647293, -0.015610035508871078, 0.06350154429674149, 0.13857907056808472, -0.21332363784313202, 0.025761635974049568, 0.1579812616109848, 0.10965484380722046, -0.1789316087961197, 0.13180918991565704, -0.02426343783736229, 0.10312396287918091, 0.041343461722135544, 0.23602314293384552, -0.08744499087333679, 0.013985701836645603, -0.21931935846805573, 0.10947716236114502, -0.06098324432969093, 0.18781282007694244, 0.07049398869276047, -0.07229971885681152, -0.003183543449267745, -0.10616480559110641, 0.008447982370853424, 0.16076673567295074, 0.10073252767324448, -0.11697278916835785, 0.11186420917510986, 0.04805470630526543, -0.2784483730792999, -0.07281706482172012, -0.13771088421344757, 0.2219979166984558, 0.06615564227104187, -0.025848690420389175, -0.0523369237780571, 0.09500377625226974, -0.09722680598497391, -0.16908036172389984, -0.0624406524002552, -0.0873006135225296, 0.08987018465995789, 0.22199368476867676, 0.005578385666012764, 0.20783653855323792, -0.16176341474056244, 0.24691808223724365, 0.2599235475063324, 0.09466474503278732, 0.03517190366983414, 0.005897920113056898, 0.16567130386829376, -0.10396748781204224, -0.22253672778606415, -0.10095443576574326, -0.028594734147191048, -0.011741106398403645, 0.08531489968299866, 0.1138995885848999, -0.027830202132463455, 0.00881680753082037, 0.04759610816836357, 0.3059518337249756, 0.15202078223228455, 0.07791170477867126, 0.06705458462238312, -0.04814419150352478, 0.15874947607517242, -0.015010513365268707, 0.148501455783844, -0.20626670122146606, -0.1612529307603836, -0.1588837206363678, 0.08926399052143097, 0.07334195077419281, 0.03654513880610466, 0.11134996265172958, 0.09797447174787521, 0.009927654638886452, -0.1913561224937439, -0.02144111506640911, 0.11892305314540863, 0.15650874376296997, 0.5722320675849915, -0.015885990113019943, -0.06772936135530472, -0.27960705757141113, 0.05093379691243172, 0.04803851246833801, 0.10369309037923813, 0.1600753366947174, -0.005637939553707838, 0.02171248570084572, -0.1622600108385086, 0.10143587738275528, 0.15476766228675842, -0.09837058931589127, -0.06892883032560349, -0.09943054616451263, -0.03046620637178421, -0.15109652280807495, -0.054601430892944336, 0.13463780283927917, -0.02439803257584572, -0.19932933151721954, 0.015993406996130943, 0.025374893099069595, -0.16673624515533447, -0.13301557302474976, -0.11367370933294296, 0.158130943775177, 0.08713800460100174, -0.05396069958806038, -0.3107050061225891, -0.027740629389882088, 0.045007746666669846, 0.14357680082321167, -0.2259407788515091, 0.11244769394397736, 0.07529792934656143, -0.04109887406229973, -0.08190134912729263, 0.0019331389339640737, -0.22010086476802826, -0.03704075515270233, 0.1366363912820816, 0.1973414570093155, 0.17178034782409668, -0.23668138682842255, 0.10669387876987457, 0.04311206936836243, 0.1717458814382553, -0.04616927355527878, -0.13820865750312805, -0.10879631340503693, 0.08642377704381943, -0.08381359279155731, -0.169198140501976, -0.1337767094373703, -0.26598429679870605, 0.05503145232796669, -0.1985923945903778, -0.118589848279953, 0.10867362469434738, 0.1794404238462448, 0.204519584774971, -0.17290538549423218, 0.19298836588859558, 0.2296682596206665, 0.006983544211834669, 0.019687386229634285, 